{"learner": {"attributes": {}, "feature_names": ["ID", "DATA_0", "DATA_1", "DATA_2", "DATA_3", "DATA_4", "DATA_5", "DATA_6", "DATA_7"], "feature_types": ["int", "int", "int", "int", "int", "int", "int", "int", "int"], "gradient_booster": {"model": {"cats": {"enc": [], "feature_segments": [], "sorted_idx": []}, "gbtree_model_param": {"num_parallel_tree": "50", "num_trees": "250"}, "iteration_indptr": [0, 50, 100, 150, 200, 250], "tree_info": [0, 0, 0, 0, 0, 0, 0, 0, 0, 0, 0, 0, 0, 0, 0, 0, 0, 0, 0, 0, 0, 0, 0, 0, 0, 0, 0, 0, 0, 0, 0, 0, 0, 0, 0, 0, 0, 0, 0, 0, 0, 0, 0, 0, 0, 0, 0, 0, 0, 0, 0, 0, 0, 0, 0, 0, 0, 0, 0, 0, 0, 0, 0, 0, 0, 0, 0, 0, 0, 0, 0, 0, 0, 0, 0, 0, 0, 0, 0, 0, 0, 0, 0, 0, 0, 0, 0, 0, 0, 0, 0, 0, 0, 0, 0, 0, 0, 0, 0, 0, 0, 0, 0, 0, 0, 0, 0, 0, 0, 0, 0, 0, 0, 0, 0, 0, 0, 0, 0, 0, 0, 0, 0, 0, 0, 0, 0, 0, 0, 0, 0, 0, 0, 0, 0, 0, 0, 0, 0, 0, 0, 0, 0, 0, 0, 0, 0, 0, 0, 0, 0, 0, 0, 0, 0, 0, 0, 0, 0, 0, 0, 0, 0, 0, 0, 0, 0, 0, 0, 0, 0, 0, 0, 0, 0, 0, 0, 0, 0, 0, 0, 0, 0, 0, 0, 0, 0, 0, 0, 0, 0, 0, 0, 0, 0, 0, 0, 0, 0, 0, 0, 0, 0, 0, 0, 0, 0, 0, 0, 0, 0, 0, 0, 0, 0, 0, 0, 0, 0, 0, 0, 0, 0, 0, 0, 0, 0, 0, 0, 0, 0, 0, 0, 0, 0, 0, 0, 0, 0, 0, 0, 0, 0, 0, 0, 0, 0, 0, 0, 0], "trees": [{"base_weights": [-0.004630728, -0.22831991, 1.0227557, 1.8862917, -0.2081839, 1.930297, -0.022902325, 0.8242167, 0.34149605, 0.04727374, 0.06955622], "categories": [], "categories_nodes": [], "categories_segments": [], "categories_sizes": [], "default_left": [0, 0, 0, 0, 0, 0, 0, 0, 0, 0, 0], "id": 0, "left_children": [1, -1, 3, 5, -1, 7, -1, 9, -1, -1, -1], "loss_changes": [2098.9993, 0.0, 1771.8018, 87.07019, 0.0, 36.346558, 0.0, 91.593094, 0.0, 0.0, 0.0], "parents": [2147483647, 0, 0, 2, 2, 3, 3, 5, 5, 7, 7], "right_children": [2, -1, 4, 6, -1, 8, -1, 10, -1, -1, -1], "split_conditions": [1.0, -0.22831991, 514.0, 54.0, -0.2081839, 1.0, -0.022902325, 7.0, 0.34149605, 0.04727374, 0.06955622], "split_indices": [2, 0, 0, 6, 0, 4, 0, 2, 0, 0, 0], "split_type": [0, 0, 0, 0, 0, 0, 0, 0, 0, 0, 0], "sum_hessian": [1032.0612, 352.75476, 679.30634, 528.1419, 151.16443, 522.2174, 5.9244967, 30.017448, 492.19998, 21.4, 8.61745], "tree_param": {"num_deleted": "0", "num_feature": "9", "num_nodes": "11", "size_leaf_vector": "1"}}, {"base_weights": [0.011569013, 1.490354, 0.00015770232, -1.8844424, 1.8721598, 0.027739292, -0.08435541, 0.021025416, -0.59311175], "categories": [], "categories_nodes": [], "categories_segments": [], "categories_sizes": [], "default_left": [0, 0, 0, 0, 0, 0, 0, 0, 0], "id": 1, "left_children": [1, 3, -1, 5, 7, -1, -1, -1, -1], "loss_changes": [3019.9424, 758.4253, 0.0, 2.83638, 249.02478, 0.0, 0.0, 0.0, 0.0], "parents": [2147483647, 0, 0, 1, 1, 3, 3, 4, 4], "right_children": [2, 4, -1, 6, 8, -1, -1, -1, -1], "split_conditions": [514.0, 1.0, 0.00015770232, 1.0, 32.0, 0.027739292, -0.08435541, 0.021025416, -0.59311175], "split_indices": [0, 2, 0, 6, 2, 0, 0, 0, 0], "split_type": [0, 0, 0, 0, 0, 0, 0, 0, 0], "sum_hessian": [1015.55817, 584.8652, 430.69296, 59.043343, 525.82184, 5.36381, 53.67953, 509.4846, 16.337248], "tree_param": {"num_deleted": "0", "num_feature": "9", "num_nodes": "9", "size_leaf_vector": "1"}}, {"base_weights": [-0.0075414707, -0.19865896, 0.99139297, 1.8708407, 0.10556015, 0.41089803, 0.23694728], "categories": [], "categories_nodes": [], "categories_segments": [], "categories_sizes": [], "default_left": [0, 0, 0, 0, 0, 0, 0], "id": 2, "left_children": [1, -1, 3, 5, -1, -1, -1], "loss_changes": [2027.2863, 0.0, 1790.0449, 251.71313, 0.0, 0.0, 0.0], "parents": [2147483647, 0, 0, 2, 2, 3, 3], "right_children": [2, -1, 4, 6, -1, -1, -1], "split_conditions": [1.0, -0.19865896, 514.0, 32.0, 0.10556015, 0.41089803, 0.23694728], "split_indices": [2, 0, 0, 2, 0, 0, 0], "split_type": [0, 0, 0, 0, 0, 0, 0], "sum_hessian": [1024.4822, 343.54623, 680.936, 526.0014, 154.93457, 509.4846, 16.516779], "tree_param": {"num_deleted": "0", "num_feature": "9", "num_nodes": "7", "size_leaf_vector": "1"}}, {"base_weights": [0.009402864, -0.11369327, 1.003699, 1.8701308, 0.027792893, 1.9179397, 0.3108777, 0.73234046, 0.025343902, -0.094930604, -0.37639892], "categories": [], "categories_nodes": [], "categories_segments": [], "categories_sizes": [], "default_left": [0, 0, 0, 0, 0, 0, 0, 0, 0, 0, 0], "id": 3, "left_children": [1, -1, 3, 5, -1, 7, -1, 9, -1, -1, -1], "loss_changes": [2021.1078, 0.0, 1772.0513, 94.5354, 0.0, 46.9093, 0.0, 105.83259, 0.0, 0.0, 0.0], "parents": [2147483647, 0, 0, 2, 2, 3, 3, 5, 5, 7, 7], "right_children": [2, -1, 4, 6, -1, 8, -1, 10, -1, -1, -1], "split_conditions": [1.0, -0.11369327, 514.0, 54.0, 0.027792893, 1.0, 0.3108777, 7.0, 0.025343902, -0.094930604, -0.37639892], "split_indices": [2, 0, 0, 6, 0, 4, 0, 2, 0, 0, 0], "split_type": [0, 0, 0, 0, 0, 0, 0, 0, 0, 0, 0], "sum_hessian": [1022.3886, 340.95825, 681.43036, 528.65015, 152.7802, 522.1871, 6.463087, 32.867836, 489.3192, 22.634615, 10.233222], "tree_param": {"num_deleted": "0", "num_feature": "9", "num_nodes": "11", "size_leaf_vector": "1"}}, {"base_weights": [-0.0067361435, 1.5000067, -0.38523456, -1.9073449, 1.8656781, -0.15435556, 0.32939503, 1.9122247, 0.18462166, 0.6265809, -0.11558591, 0.5215099, 0.1735078], "categories": [], "categories_nodes": [], "categories_segments": [], "categories_sizes": [], "default_left": [0, 0, 0, 0, 0, 0, 0, 0, 0, 0, 0, 0, 0], "id": 4, "left_children": [1, 3, -1, 5, 7, -1, -1, 9, -1, 11, -1, -1, -1], "loss_changes": [3077.1125, 731.51636, 0.0, 8.416519, 91.578125, 0.0, 0.0, 54.89746, 0.0, 108.824776, 0.0, 0.0, 0.0], "parents": [2147483647, 0, 0, 1, 1, 3, 3, 4, 4, 7, 7, 9, 9], "right_children": [2, 4, -1, 6, 8, -1, -1, 10, -1, 12, -1, -1, -1], "split_conditions": [514.0, 1.0, -0.38523456, 1.0, 54.0, -0.15435556, 0.32939503, 1.0, 0.18462166, 6.0, -0.11558591, 0.5215099, 0.1735078], "split_indices": [0, 1, 0, 6, 6, 0, 0, 4, 0, 1, 0, 0, 0], "split_type": [0, 0, 0, 0, 0, 0, 0, 0, 0, 0, 0, 0, 0], "sum_hessian": [1024.8937, 583.24945, 441.6443, 56.118378, 527.13104, 1.1821373, 54.93624, 520.8475, 6.283557, 32.35134, 488.49615, 21.4, 10.951343], "tree_param": {"num_deleted": "0", "num_feature": "9", "num_nodes": "13", "size_leaf_vector": "1"}}, {"base_weights": [-0.012648474, 1.5151286, -0.48164898, -1.8774822, 1.8774452, -0.24796908, 0.1555051, 0.54703623, 0.10439476], "categories": [], "categories_nodes": [], "categories_segments": [], "categories_sizes": [], "default_left": [0, 0, 0, 0, 0, 0, 0, 0, 0], "id": 5, "left_children": [1, 3, -1, 5, 7, -1, -1, -1, -1], "loss_changes": [3120.125, 718.5941, 0.0, 2.7929535, 238.25293, 0.0, 0.0, 0.0, 0.0], "parents": [2147483647, 0, 0, 1, 1, 3, 3, 4, 4], "right_children": [2, 4, -1, 6, 8, -1, -1, -1, -1], "split_conditions": [514.0, 1.0, -0.48164898, 1.0, 32.0, -0.24796908, 0.1555051, 0.54703623, 0.10439476], "split_indices": [0, 2, 0, 6, 2, 0, 0, 0, 0], "split_type": [0, 0, 0, 0, 0, 0, 0, 0, 0], "sum_hessian": [1027.9457, 580.736, 447.20975, 55.632267, 525.10376, 5.36381, 50.268456, 509.4846, 15.619127], "tree_param": {"num_deleted": "0", "num_feature": "9", "num_nodes": "9", "size_leaf_vector": "1"}}, {"base_weights": [-0.004388792, 0.05657062, 1.0078678, 1.878302, -0.09011417, -0.06118128, -0.17599453], "categories": [], "categories_nodes": [], "categories_segments": [], "categories_sizes": [], "default_left": [0, 0, 0, 0, 0, 0, 0], "id": 6, "left_children": [1, -1, 3, 5, -1, -1, -1], "loss_changes": [2066.2205, 0.0, 1784.5541, 238.30774, 0.0, 0.0, 0.0], "parents": [2147483647, 0, 0, 2, 2, 3, 3], "right_children": [2, -1, 4, 6, -1, -1, -1], "split_conditions": [1.0, 0.05657062, 514.0, 32.0, -0.09011417, -0.06118128, -0.17599453], "split_indices": [2, 0, 0, 2, 0, 0, 0], "split_type": [0, 0, 0, 0, 0, 0, 0], "sum_hessian": [1031.111, 348.98462, 682.12634, 528.80756, 153.31879, 513.1885, 15.619127], "tree_param": {"num_deleted": "0", "num_feature": "9", "num_nodes": "7", "size_leaf_vector": "1"}}, {"base_weights": [-0.011940685, 1.5086719, -0.05490609, -1.8513794, 1.8757339, -0.39212522, -0.10275729, 0.103489816, -0.060050353, 0.43831864, 0.016116373], "categories": [], "categories_nodes": [], "categories_segments": [], "categories_sizes": [], "default_left": [0, 0, 0, 0, 0, 0, 0, 0, 0, 0, 0], "id": 7, "left_children": [1, 3, -1, 5, 7, 9, -1, -1, -1, -1, -1], "loss_changes": [3097.9648, 720.5397, 0.0, 8.60202, 240.92297, 11.130246, 0.0, 0.0, 0.0, 0.0, 0.0], "parents": [2147483647, 0, 0, 1, 1, 3, 3, 4, 4, 5, 5], "right_children": [2, 4, -1, 6, 8, 10, -1, -1, -1, -1, -1], "split_conditions": [514.0, 1.0, -0.05490609, 1.0, 32.0, 1.0, -0.10275729, 0.103489816, -0.060050353, 0.43831864, 0.016116373], "split_indices": [0, 2, 0, 7, 2, 1, 0, 0, 0, 0, 0], "split_type": [0, 0, 0, 0, 0, 0, 0, 0, 0, 0, 0], "sum_hessian": [1025.0953, 580.39905, 444.69632, 56.761925, 523.6371, 4.339107, 52.42282, 507.83844, 15.798658, 1.6461538, 2.692953], "tree_param": {"num_deleted": "0", "num_feature": "9", "num_nodes": "11", "size_leaf_vector": "1"}}, {"base_weights": [0.026432753, 1.5129919, 0.32618472, -1.8805125, 1.8722913, -0.7306514, -0.036150582, -0.0959363, -0.20388256, -0.29572502, 0.65615], "categories": [], "categories_nodes": [], "categories_segments": [], "categories_sizes": [], "default_left": [0, 0, 0, 0, 0, 0, 0, 0, 0, 0, 0], "id": 8, "left_children": [1, 3, -1, 5, 7, 9, -1, -1, -1, -1, -1], "loss_changes": [3136.171, 736.6787, 0.0, 4.052902, 257.3684, 9.681818, 0.0, 0.0, 0.0, 0.0, 0.0], "parents": [2147483647, 0, 0, 1, 1, 3, 3, 4, 4, 5, 5], "right_children": [2, 4, -1, 6, 8, 10, -1, -1, -1, -1, -1], "split_conditions": [514.0, 1.0, 0.32618472, 1.0, 32.0, 1.0, -0.036150582, -0.0959363, -0.20388256, -0.29572502, 0.65615], "split_indices": [0, 2, 0, 7, 2, 1, 0, 0, 0, 0, 0], "split_type": [0, 0, 0, 0, 0, 0, 0, 0, 0, 0, 0], "sum_hessian": [1041.4077, 600.302, 441.1057, 57.06851, 543.2335, 4.466159, 52.60235, 526.35767, 16.87584, 1.2346153, 3.2315435], "tree_param": {"num_deleted": "0", "num_feature": "9", "num_nodes": "11", "size_leaf_vector": "1"}}, {"base_weights": [-0.010438149, 1.497149, 0.44163942, -1.850916, 1.8599931, 0.1859817, -0.091626, 1.9708747, 0.057594575, 0.15958641, 0.4295182], "categories": [], "categories_nodes": [], "categories_segments": [], "categories_sizes": [], "default_left": [0, 0, 0, 0, 0, 0, 0, 0, 0, 0, 0], "id": 9, "left_children": [1, 3, -1, 5, 7, -1, -1, 9, -1, -1, -1], "loss_changes": [3073.876, 712.6399, 0.0, 22.64177, 221.8988, 0.0, 0.0, 48.2229, 0.0, 0.0, 0.0], "parents": [2147483647, 0, 0, 1, 1, 3, 3, 4, 4, 7, 7], "right_children": [2, 4, -1, 6, 8, -1, -1, 10, -1, -1, -1], "split_conditions": [514.0, 1.0, 0.44163942, 1.0, 32.0, 0.1859817, -0.091626, 1.0, 0.057594575, 0.15958641, 0.4295182], "split_indices": [0, 1, 0, 7, 2, 0, 0, 2, 0, 0, 0], "split_type": [0, 0, 0, 0, 0, 0, 0, 0, 0, 0, 0], "sum_hessian": [1025.1478, 582.7854, 442.36243, 56.582397, 526.203, 1.6461538, 54.93624, 511.48154, 14.721477, 3.2315435, 508.25], "tree_param": {"num_deleted": "0", "num_feature": "9", "num_nodes": "11", "size_leaf_vector": "1"}}, {"base_weights": [-0.01053084, 1.5032899, -0.30482662, -1.8774822, 1.8649414, -0.17873012, -0.29980454, 1.9721992, -0.10046181, 0.241347, -0.5324463], "categories": [], "categories_nodes": [], "categories_segments": [], "categories_sizes": [], "default_left": [0, 0, 0, 0, 0, 0, 0, 0, 0, 0, 0], "id": 10, "left_children": [1, 3, -1, 5, 7, -1, -1, 9, -1, -1, -1], "loss_changes": [3076.634, 713.7239, 0.0, 16.765991, 214.00354, 0.0, 0.0, 45.43225, 0.0, 0.0, 0.0], "parents": [2147483647, 0, 0, 1, 1, 3, 3, 4, 4, 7, 7], "right_children": [2, 4, -1, 6, 8, -1, -1, 10, -1, -1, -1], "split_conditions": [514.0, 1.0, -0.30482662, 1.0, 32.0, -0.17873012, -0.29980454, 1.0, -0.10046181, 0.241347, -0.5324463], "split_indices": [0, 1, 0, 7, 2, 0, 0, 2, 0, 0, 0], "split_type": [0, 0, 0, 0, 0, 0, 0, 0, 0, 0, 0], "sum_hessian": [1021.8859, 579.88257, 442.00336, 55.632267, 524.25024, 1.2346153, 54.39765, 510.06738, 14.182886, 3.0520134, 507.01538], "tree_param": {"num_deleted": "0", "num_feature": "9", "num_nodes": "11", "size_leaf_vector": "1"}}, {"base_weights": [-0.0018018896, 1.5075887, -0.06044667, -1.850916, 1.8730831, -0.53945947, -0.84311473, 1.9267962, -0.25215417, 0.04328518, -0.24030377, -0.07842659, 0.8340515], "categories": [], "categories_nodes": [], "categories_segments": [], "categories_sizes": [], "default_left": [0, 0, 0, 0, 0, 0, 0, 0, 0, 0, 0, 0, 0], "id": 11, "left_children": [1, 3, -1, 5, 7, 9, -1, 11, -1, -1, -1, -1, -1], "loss_changes": [3075.0732, 717.36304, 0.0, 7.334244, 105.706665, 3.1930811, 0.0, 137.25806, 0.0, 0.0, 0.0, 0.0, 0.0], "parents": [2147483647, 0, 0, 1, 1, 3, 3, 4, 4, 5, 5, 7, 7], "right_children": [2, 4, -1, 6, 8, 10, -1, 12, -1, -1, -1, -1, -1], "split_conditions": [514.0, 1.0, -0.06044667, 1.0, 54.0, 342.0, -0.84311473, 32.0, -0.25215417, 0.04328518, -0.24030377, -0.07842659, 0.8340515], "split_indices": [0, 2, 0, 6, 6, 0, 0, 2, 0, 0, 0, 0, 0], "split_type": [0, 0, 0, 0, 0, 0, 0, 0, 0, 0, 0, 0, 0], "sum_hessian": [1019.889, 580.57855, 439.3104, 56.582397, 523.99615, 4.8776975, 51.704697, 516.81494, 7.181208, 1.0026071, 3.8750904, 507.83844, 8.97651], "tree_param": {"num_deleted": "0", "num_feature": "9", "num_nodes": "13", "size_leaf_vector": "1"}}, {"base_weights": [-0.014539946, 0.28423646, 0.98066354, 1.872533, 0.34817123, -0.2717529, -0.24382624], "categories": [], "categories_nodes": [], "categories_segments": [], "categories_sizes": [], "default_left": [0, 0, 0, 0, 0, 0, 0], "id": 12, "left_children": [1, -1, 3, 5, -1, -1, -1], "loss_changes": [2044.3362, 0.0, 1840.3419, 251.82812, 0.0, 0.0, 0.0], "parents": [2147483647, 0, 0, 2, 2, 3, 3], "right_children": [2, -1, 4, 6, -1, -1, -1], "split_conditions": [1.0, 0.28423646, 514.0, 32.0, 0.34817123, -0.2717529, -0.24382624], "split_indices": [2, 0, 0, 2, 0, 0, 0], "split_type": [0, 0, 0, 0, 0, 0, 0], "sum_hessian": [1043.0208, 350.24133, 692.7794, 532.99756, 159.78188, 516.4808, 16.516779], "tree_param": {"num_deleted": "0", "num_feature": "9", "num_nodes": "7", "size_leaf_vector": "1"}}, {"base_weights": [0.001690915, 1.5190161, -0.15202217, -1.8475897, 1.8702306, -0.6366528, 0.03397189, 0.6202329, -0.13870016], "categories": [], "categories_nodes": [], "categories_segments": [], "categories_sizes": [], "default_left": [0, 0, 0, 0, 0, 0, 0, 0, 0], "id": 13, "left_children": [1, 3, -1, 5, 7, -1, -1, -1, -1], "loss_changes": [3151.205, 702.1559, 0.0, 7.307541, 257.22534, 0.0, 0.0, 0.0, 0.0], "parents": [2147483647, 0, 0, 1, 1, 3, 3, 4, 4], "right_children": [2, 4, -1, 6, 8, -1, -1, -1, -1], "split_conditions": [514.0, 1.0, -0.15202217, 1.0, 32.0, -0.6366528, 0.03397189, 0.6202329, -0.13870016], "split_indices": [0, 2, 0, 7, 2, 0, 0, 0, 0], "split_type": [0, 0, 0, 0, 0, 0, 0, 0, 0], "sum_hessian": [1037.8447, 589.9169, 447.92786, 55.325684, 534.5912, 4.8776975, 50.447987, 517.7154, 16.87584], "tree_param": {"num_deleted": "0", "num_feature": "9", "num_nodes": "9", "size_leaf_vector": "1"}}, {"base_weights": [0.0007099067, 1.5129021, 0.07259735, 1.7365797, -0.5574058, -1.5868552, 1.8615952, 0.3896531, 0.27213207, 1.9687712, -0.3396624, 0.12060771, -0.028124083], "categories": [], "categories_nodes": [], "categories_segments": [], "categories_sizes": [], "default_left": [0, 0, 0, 0, 0, 0, 0, 0, 0, 0, 0, 0, 0], "id": 14, "left_children": [1, 3, -1, 5, -1, 7, 9, -1, -1, 11, -1, -1, -1], "loss_changes": [3150.4885, 462.70764, 0.0, 234.90552, 0.0, 20.51247, 219.12415, 0.0, 0.0, 53.817627, 0.0, 0.0, 0.0], "parents": [2147483647, 0, 0, 1, 1, 3, 3, 5, 5, 6, 6, 9, 9], "right_children": [2, 4, -1, 6, -1, 8, 10, -1, -1, 12, -1, -1, -1], "split_conditions": [514.0, 154.0, 0.07259735, 1.0, -0.5574058, 1.0, 32.0, 0.3896531, 0.27213207, 1.0, -0.3396624, 0.12060771, -0.028124083], "split_indices": [0, 7, 0, 1, 0, 4, 2, 0, 0, 2, 0, 0, 0], "split_type": [0, 0, 0, 0, 0, 0, 0, 0, 0, 0, 0, 0, 0], "sum_hessian": [1041.6453, 592.81976, 448.8255, 557.27277, 35.54698, 19.778704, 537.4941, 1.6461538, 18.132551, 522.95215, 14.541946, 3.590604, 519.3615], "tree_param": {"num_deleted": "0", "num_feature": "9", "num_nodes": "13", "size_leaf_vector": "1"}}, {"base_weights": [-0.0049155965, 1.5057083, 0.07627736, -1.9079237, 1.8739723, -1.0832245, -0.1432428, 1.9232644, 0.4617203, -0.12439341, -0.13597582, 1.9724433, -0.26276052, -0.046992354, -0.22573854], "categories": [], "categories_nodes": [], "categories_segments": [], "categories_sizes": [], "default_left": [0, 0, 0, 0, 0, 0, 0, 0, 0, 0, 0, 0, 0, 0, 0], "id": 15, "left_children": [1, 3, -1, 5, 7, 9, -1, 11, -1, -1, -1, 13, -1, -1, -1], "loss_changes": [3094.9958, 739.21204, 0.0, 0.44044495, 97.482056, 0.87999964, 0.0, 97.26282, 0.0, 0.0, 0.0, 45.43579, 0.0, 0.0, 0.0], "parents": [2147483647, 0, 0, 1, 1, 3, 3, 4, 4, 5, 5, 7, 7, 11, 11], "right_children": [2, 4, -1, 6, 8, 10, -1, 12, -1, -1, -1, 14, -1, -1, -1], "split_conditions": [514.0, 1.0, 0.07627736, 1.0, 54.0, 1.0, -0.1432428, 32.0, 0.4617203, -0.12439341, -0.13597582, 1.0, -0.26276052, -0.046992354, -0.22573854], "split_indices": [0, 1, 0, 4, 6, 2, 0, 2, 0, 0, 0, 2, 0, 0, 0], "split_type": [0, 0, 0, 0, 0, 0, 0, 0, 0, 0, 0, 0, 0, 0, 0], "sum_hessian": [1027.258, 584.1774, 443.08054, 56.47744, 527.7, 4.7727413, 51.704697, 521.0574, 6.6426177, 2.2593186, 2.513423, 514.5943, 6.463087, 3.0520134, 511.5423], "tree_param": {"num_deleted": "0", "num_feature": "9", "num_nodes": "15", "size_leaf_vector": "1"}}, {"base_weights": [0.038922146, 1.536108, 0.05468563, -1.872216, 1.8754674, -0.30495074, 0.11841905, 1.9730668, -0.0642894, 0.00528789, -0.2458957], "categories": [], "categories_nodes": [], "categories_segments": [], "categories_sizes": [], "default_left": [0, 0, 0, 0, 0, 0, 0, 0, 0, 0, 0], "id": 16, "left_children": [1, 3, -1, 5, 7, -1, -1, 9, -1, -1, -1], "loss_changes": [3141.3662, 690.6897, 0.0, 16.73262, 200.83899, 0.0, 0.0, 45.444336, 0.0, 0.0, 0.0], "parents": [2147483647, 0, 0, 1, 1, 3, 3, 4, 4, 7, 7], "right_children": [2, 4, -1, 6, 8, -1, -1, 10, -1, -1, -1], "split_conditions": [514.0, 1.0, 0.05468563, 1.0, 32.0, -0.30495074, 0.11841905, 1.0, -0.0642894, 0.00528789, -0.2458957], "split_indices": [0, 1, 0, 7, 2, 0, 0, 2, 0, 0, 0], "split_type": [0, 0, 0, 0, 0, 0, 0, 0, 0, 0, 0], "sum_hessian": [1029.371, 593.11255, 436.2584, 53.298374, 539.81415, 1.2346153, 52.06376, 526.52893, 13.285235, 3.0520134, 523.4769], "tree_param": {"num_deleted": "0", "num_feature": "9", "num_nodes": "11", "size_leaf_vector": "1"}}, {"base_weights": [-0.0063318536, -0.041856147, 0.53779423, 1.8596644, -0.08701099, -0.15148184, 1.8875302, 1.9680176, 0.27171507, 0.14537, 1.3043597, 0.052253332, 0.24229106], "categories": [], "categories_nodes": [], "categories_segments": [], "categories_sizes": [], "default_left": [0, 0, 0, 0, 0, 0, 0, 0, 0, 0, 0, 0, 0], "id": 17, "left_children": [1, -1, 3, 5, -1, -1, 7, 9, -1, -1, 11, -1, -1], "loss_changes": [1090.9808, 0.0, 2679.4922, 53.407715, 0.0, 0.0, 159.73938, 6.8671875, 0.0, 0.0, 43.13935, 0.0, 0.0], "parents": [2147483647, 0, 0, 2, 2, 3, 3, 6, 6, 7, 7, 10, 10], "right_children": [2, -1, 4, 6, -1, -1, 8, 10, -1, -1, 12, -1, -1], "split_conditions": [1.0, -0.041856147, 514.0, 125.0, -0.08701099, -0.15148184, 32.0, 186.0, 0.27171507, 0.14537, 131.0, 0.052253332, 0.24229106], "split_indices": [1, 0, 0, 0, 0, 0, 2, 1, 0, 0, 0, 0, 0], "split_type": [0, 0, 0, 0, 0, 0, 0, 0, 0, 0, 0, 0, 0], "sum_hessian": [1019.73157, 220.80005, 798.93146, 524.9684, 273.9631, 3.7701342, 521.19824, 510.606, 10.592282, 488.0846, 22.521374, 18.930769, 3.590604], "tree_param": {"num_deleted": "0", "num_feature": "9", "num_nodes": "13", "size_leaf_vector": "1"}}, {"base_weights": [0.0064106667, 1.5141213, -0.3013212, -1.9058656, 1.8712314, 0.27002722, -0.014085226, 1.971335, -0.11376287, 0.031359106, 0.40821245], "categories": [], "categories_nodes": [], "categories_segments": [], "categories_sizes": [], "default_left": [0, 0, 0, 0, 0, 0, 0, 0, 0, 0, 0], "id": 18, "left_children": [1, 3, -1, 5, 7, -1, -1, 9, -1, -1, -1], "loss_changes": [3118.8025, 723.4049, 0.0, 8.409866, 203.2832, 0.0, 0.0, 48.229614, 0.0, 0.0, 0.0], "parents": [2147483647, 0, 0, 1, 1, 3, 3, 4, 4, 7, 7], "right_children": [2, 4, -1, 6, 8, -1, -1, 10, -1, -1, -1], "split_conditions": [514.0, 1.0, -0.3013212, 1.0, 32.0, 0.27002722, -0.014085226, 1.0, -0.11376287, 0.031359106, 0.40821245], "split_indices": [0, 1, 0, 6, 2, 0, 0, 2, 0, 0, 0], "split_type": [0, 0, 0, 0, 0, 0, 0, 0, 0, 0, 0], "sum_hessian": [1031.2988, 588.39777, 442.901, 55.22073, 533.17706, 1.1821373, 54.03859, 519.7123, 13.464766, 3.2315435, 516.4808], "tree_param": {"num_deleted": "0", "num_feature": "9", "num_nodes": "11", "size_leaf_vector": "1"}}, {"base_weights": [0.0004693616, 1.5147306, -0.55695647, -1.8759086, 1.8710421, -0.7306514, 0.4670924, -0.03360291, -0.58452874, 0.021128628, -0.6323534], "categories": [], "categories_nodes": [], "categories_segments": [], "categories_sizes": [], "default_left": [0, 0, 0, 0, 0, 0, 0, 0, 0, 0, 0], "id": 19, "left_children": [1, 3, -1, 5, 7, 9, -1, -1, -1, -1, -1], "loss_changes": [3097.4722, 707.5304, 0.0, 4.0240784, 251.7268, 8.121571, 0.0, 0.0, 0.0, 0.0, 0.0], "parents": [2147483647, 0, 0, 1, 1, 3, 3, 4, 4, 5, 5], "right_children": [2, 4, -1, 6, 8, 10, -1, -1, -1, -1, -1], "split_conditions": [514.0, 1.0, -0.55695647, 1.0, 32.0, 1.0, 0.4670924, -0.03360291, -0.58452874, 0.021128628, -0.6323534], "split_indices": [0, 2, 0, 6, 2, 1, 0, 0, 0, 0, 0], "split_type": [0, 0, 0, 0, 0, 0, 0, 0, 0, 0, 0], "sum_hessian": [1022.8443, 581.7386, 441.1057, 54.914146, 526.82446, 4.466159, 50.447987, 510.30768, 16.516779, 1.4141456, 3.0520134], "tree_param": {"num_deleted": "0", "num_feature": "9", "num_nodes": "11", "size_leaf_vector": "1"}}, {"base_weights": [0.009300944, 1.5133909, -0.30245134, -1.8778694, 1.8712314, -0.55484706, -1.0080253, 1.9226471, -0.4646702, 1.9740754, -0.28417856, 0.29492554, 1.4747733, -0.10943235, -0.40384975], "categories": [], "categories_nodes": [], "categories_segments": [], "categories_sizes": [], "default_left": [0, 0, 0, 0, 0, 0, 0, 0, 0, 0, 0, 0, 0, 0, 0], "id": 20, "left_children": [1, 3, -1, 5, 7, -1, -1, 9, -1, 11, -1, -1, 13, -1, -1], "loss_changes": [3113.779, 719.4835, 0.0, 13.786438, 102.82349, 0.0, 0.0, 102.86133, 0.0, 2.7434082, 0.0, 0.0, 36.082737, 0.0, 0.0], "parents": [2147483647, 0, 0, 1, 1, 3, 3, 4, 4, 7, 7, 9, 9, 12, 12], "right_children": [2, 4, -1, 6, 8, -1, -1, 10, -1, 12, -1, -1, 14, -1, -1], "split_conditions": [514.0, 1.0, -0.30245134, 1.0, 54.0, -0.55484706, -1.0080253, 32.0, -0.4646702, 186.0, -0.28417856, 0.29492554, 192.0, -0.10943235, -0.40384975], "split_indices": [0, 1, 0, 6, 6, 0, 0, 2, 0, 1, 0, 0, 1, 0, 0], "split_type": [0, 0, 0, 0, 0, 0, 0, 0, 0, 0, 0, 0, 0, 0, 0], "sum_hessian": [1030.6332, 588.9889, 441.6443, 55.8118, 533.17706, 1.5936757, 54.21812, 526.1754, 7.001678, 519.3532, 6.822148, 494.66922, 24.684021, 2.8724833, 21.811539], "tree_param": {"num_deleted": "0", "num_feature": "9", "num_nodes": "15", "size_leaf_vector": "1"}}, {"base_weights": [-0.009612462, 0.115365036, 0.54025555, 1.8597741, -0.036512516, 1.9091048, 0.003091219, 1.2132806, -0.42232215, -0.5184194, 0.17855497], "categories": [], "categories_nodes": [], "categories_segments": [], "categories_sizes": [], "default_left": [0, 0, 0, 0, 0, 0, 0, 0, 0, 0, 0], "id": 21, "left_children": [1, -1, 3, 5, -1, 7, -1, 9, -1, -1, -1], "loss_changes": [1100.3923, 0.0, 2676.8904, 96.74902, 0.0, 28.880493, 0.0, 140.20755, 0.0, 0.0, 0.0], "parents": [2147483647, 0, 0, 2, 2, 3, 3, 5, 5, 7, 7], "right_children": [2, -1, 4, 6, -1, 8, -1, 10, -1, -1, -1], "split_conditions": [1.0, 0.115365036, 514.0, 54.0, -0.036512516, 1.0, 0.003091219, 1.0, -0.42232215, -0.5184194, 0.17855497], "split_indices": [1, 0, 0, 6, 0, 3, 0, 5, 0, 0, 0], "split_type": [0, 0, 0, 0, 0, 0, 0, 0, 0, 0, 0], "sum_hessian": [1023.06805, 224.26361, 798.80444, 525.37994, 273.4245, 518.7373, 6.6426177, 59.048862, 459.68845, 11.310403, 47.73846], "tree_param": {"num_deleted": "0", "num_feature": "9", "num_nodes": "11", "size_leaf_vector": "1"}}, {"base_weights": [-0.022953682, 0.14786662, 0.53615654, 1.8689994, 0.12961538, 1.971928, -0.037459187, 0.45058483, 1.4031699, 0.10267334, 0.10706931], "categories": [], "categories_nodes": [], "categories_segments": [], "categories_sizes": [], "default_left": [0, 0, 0, 0, 0, 0, 0, 0, 0, 0, 0], "id": 22, "left_children": [1, -1, 3, 5, -1, 7, -1, -1, 9, -1, -1], "loss_changes": [1107.2881, 0.0, 2675.4385, 203.19482, 0.0, 4.0893555, 0.0, 0.0, 37.53232, 0.0, 0.0], "parents": [2147483647, 0, 0, 2, 2, 3, 3, 5, 5, 8, 8], "right_children": [2, -1, 4, 6, -1, 8, -1, -1, 10, -1, -1], "split_conditions": [1.0, 0.14786662, 514.0, 32.0, 0.12961538, 186.0, -0.037459187, 0.45058483, 131.0, 0.10267334, 0.10706931], "split_indices": [1, 0, 0, 2, 0, 1, 0, 0, 0, 0, 0], "split_type": [0, 0, 0, 0, 0, 0, 0, 0, 0, 0, 0], "sum_hessian": [1019.1543, 227.49515, 791.6591, 518.5937, 273.06543, 505.12894, 13.464766, 482.32306, 22.805859, 19.753845, 3.0520134], "tree_param": {"num_deleted": "0", "num_feature": "9", "num_nodes": "11", "size_leaf_vector": "1"}}, {"base_weights": [-0.027665036, 1.4943023, 0.24533454, -1.8532044, 1.8667494, 0.26333925, 0.014522689, -0.25599205, 1.8935521, 1.917994, -0.17041022, 1.972019, 0.0014497646, -0.20757984, 1.3926709, -0.018805891, 0.09648477], "categories": [], "categories_nodes": [], "categories_segments": [], "categories_sizes": [], "default_left": [0, 0, 0, 0, 0, 0, 0, 0, 0, 0, 0, 0, 0, 0, 0, 0, 0], "id": 23, "left_children": [1, 3, -1, 5, 7, -1, -1, -1, 9, 11, -1, 13, -1, -1, 15, -1, -1], "loss_changes": [3075.6746, 725.4375, 0.0, 22.660263, 50.9292, 0.0, 0.0, 0.0, 46.24231, 105.46228, 0.0, 4.239624, 0.0, 0.0, 37.387047, 0.0, 0.0], "parents": [2147483647, 0, 0, 1, 1, 3, 3, 4, 4, 8, 8, 9, 9, 11, 11, 14, 14], "right_children": [2, 4, -1, 6, 8, -1, -1, -1, 10, 12, -1, 14, -1, -1, 16, -1, -1], "split_conditions": [514.0, 1.0, 0.24533454, 1.0, 125.0, 0.26333925, 0.014522689, -0.25599205, 54.0, 32.0, -0.17041022, 186.0, 0.0014497646, -0.20757984, 1.0, -0.018805891, 0.09648477], "split_indices": [0, 1, 0, 7, 0, 0, 0, 0, 6, 2, 0, 1, 0, 0, 2, 0, 0], "split_type": [0, 0, 0, 0, 0, 0, 0, 0, 0, 0, 0, 0, 0, 0, 0, 0, 0], "sum_hessian": [1024.9297, 578.079, 446.85068, 57.480045, 520.5989, 1.6461538, 55.833893, 3.590604, 517.0083, 513.77673, 3.2315435, 506.7751, 7.001678, 484.38077, 22.394321, 3.0520134, 19.342308], "tree_param": {"num_deleted": "0", "num_feature": "9", "num_nodes": "17", "size_leaf_vector": "1"}}, {"base_weights": [0.015024889, 1.5174904, -0.20241882, 0.22752362, 1.8761889, -0.16645914, 1.9061598, 0.68578595, -0.33750254, -0.02249839, 0.31933543], "categories": [], "categories_nodes": [], "categories_segments": [], "categories_sizes": [], "default_left": [0, 0, 0, 0, 0, 0, 0, 0, 0, 0, 0], "id": 24, "left_children": [1, 3, -1, -1, 5, -1, 7, 9, -1, -1, -1], "loss_changes": [3132.6714, 738.70166, 0.0, 0.0, 59.30017, 0.0, 57.16577, 123.055984, 0.0, 0.0, 0.0], "parents": [2147483647, 0, 0, 1, 1, 4, 4, 6, 6, 7, 7], "right_children": [2, 4, -1, -1, 6, -1, 8, 10, -1, -1, -1], "split_conditions": [514.0, 1.0, -0.20241882, 0.22752362, 125.0, -0.16645914, 1.0, 7.0, -0.33750254, -0.02249839, 0.31933543], "split_indices": [0, 2, 0, 0, 0, 0, 4, 2, 0, 0, 0], "split_type": [0, 0, 0, 0, 0, 0, 0, 0, 0, 0, 0], "sum_hessian": [1035.0552, 592.5132, 442.54196, 55.347782, 537.1654, 4.1291947, 533.0362, 37.13237, 495.90384, 25.103846, 12.028523], "tree_param": {"num_deleted": "0", "num_feature": "9", "num_nodes": "11", "size_leaf_vector": "1"}}, {"base_weights": [0.009783626, 1.4921379, -0.30975768, -1.8833965, 1.8667166, -0.6875452, -0.62764066, 0.18280157, -0.2873502, 0.043632858, -0.5611662], "categories": [], "categories_nodes": [], "categories_segments": [], "categories_sizes": [], "default_left": [0, 0, 0, 0, 0, 0, 0, 0, 0, 0, 0], "id": 25, "left_children": [1, 3, -1, 5, 7, 9, -1, -1, -1, -1, -1], "loss_changes": [3054.083, 750.4636, 0.0, 4.369812, 262.53015, 9.424609, 0.0, 0.0, 0.0, 0.0, 0.0], "parents": [2147483647, 0, 0, 1, 1, 3, 3, 4, 4, 5, 5], "right_children": [2, 4, -1, 6, 8, 10, -1, -1, -1, -1, -1], "split_conditions": [514.0, 1.0, -0.30975768, 1.0, 32.0, 1.0, -0.62764066, 0.18280157, -0.2873502, 0.043632858, -0.5611662], "split_indices": [0, 2, 0, 7, 2, 1, 0, 0, 0, 0, 0], "split_type": [0, 0, 0, 0, 0, 0, 0, 0, 0, 0, 0], "sum_hessian": [1025.471, 589.75116, 435.71982, 58.50475, 531.2464, 4.2866287, 54.21812, 514.01154, 17.2349, 1.2346153, 3.0520134], "tree_param": {"num_deleted": "0", "num_feature": "9", "num_nodes": "11", "size_leaf_vector": "1"}}, {"base_weights": [0.0055327886, 1.5088975, -0.13198666, -0.30692732, 1.8703324, -0.30506206, -0.055491887], "categories": [], "categories_nodes": [], "categories_segments": [], "categories_sizes": [], "default_left": [0, 0, 0, 0, 0, 0, 0], "id": 26, "left_children": [1, 3, -1, -1, 5, -1, -1], "loss_changes": [3087.5283, 727.0072, 0.0, 0.0, 254.45544, 0.0, 0.0], "parents": [2147483647, 0, 0, 1, 1, 4, 4], "right_children": [2, 4, -1, -1, 6, -1, -1], "split_conditions": [514.0, 1.0, -0.13198666, -0.30692732, 32.0, -0.30506206, -0.055491887], "split_indices": [0, 2, 0, 0, 2, 0, 0], "split_type": [0, 0, 0, 0, 0, 0, 0], "sum_hessian": [1024.3634, 585.053, 439.3104, 55.57979, 529.4732, 512.7769, 16.696308], "tree_param": {"num_deleted": "0", "num_feature": "9", "num_nodes": "7", "size_leaf_vector": "1"}}, {"base_weights": [0.01712208, -0.17775162, 1.0179256, 1.8837848, -0.3179857, 0.51657873, 0.057036072], "categories": [], "categories_nodes": [], "categories_segments": [], "categories_sizes": [], "default_left": [0, 0, 0, 0, 0, 0, 0], "id": 27, "left_children": [1, -1, 3, 5, -1, -1, -1], "loss_changes": [2070.5896, 0.0, 1799.3843, 230.30212, 0.0, 0.0, 0.0], "parents": [2147483647, 0, 0, 2, 2, 3, 3], "right_children": [2, -1, 4, 6, -1, -1, -1], "split_conditions": [1.0, -0.17775162, 514.0, 32.0, -0.3179857, 0.51657873, 0.057036072], "split_indices": [2, 0, 0, 2, 0, 0, 0], "split_type": [0, 0, 0, 0, 0, 0, 0], "sum_hessian": [1033.9779, 344.85544, 689.1225, 535.26514, 153.85739, 520.18463, 15.080537], "tree_param": {"num_deleted": "0", "num_feature": "9", "num_nodes": "7", "size_leaf_vector": "1"}}, {"base_weights": [0.011331868, 1.4964083, 0.12342052, 1.779515, 0.3835664, 0.48398727, -0.11377635, -1.7324758, 0.01879465, 0.30211037, 0.52785367], "categories": [], "categories_nodes": [], "categories_segments": [], "categories_sizes": [], "default_left": [0, 0, 0, 0, 0, 0, 0, 0, 0, 0, 0], "id": 28, "left_children": [1, 3, -1, 5, -1, 7, -1, 9, -1, -1, -1], "loss_changes": [3045.031, 577.3375, 0.0, 151.17627, 0.0, 261.55328, 0.0, 0.8856659, 0.0, 0.0, 0.0], "parents": [2147483647, 0, 0, 1, 1, 3, 3, 5, 5, 7, 7], "right_children": [2, 4, -1, 6, -1, 8, -1, 10, -1, -1, -1], "split_conditions": [514.0, 54.0, 0.12342052, 1.0, 0.3835664, 1.0, -0.11377635, 369.0, 0.01879465, 0.30211037, 0.52785367], "split_indices": [0, 6, 0, 3, 0, 8, 0, 0, 0, 0, 0], "split_type": [0, 0, 0, 0, 0, 0, 0, 0, 0, 0, 0], "sum_hessian": [1019.7702, 586.2048, 433.56543, 542.21985, 43.9849, 78.00449, 464.21536, 31.089108, 46.915382, 27.573078, 3.5160298], "tree_param": {"num_deleted": "0", "num_feature": "9", "num_nodes": "11", "size_leaf_vector": "1"}}, {"base_weights": [-0.00880519, 1.5065063, 0.1013922, -1.8808807, 1.8798112, -0.7306514, -0.29773095, 1.9254944, -0.23395379, 0.16972238, 0.36975393, 0.28227088, -0.2387467], "categories": [], "categories_nodes": [], "categories_segments": [], "categories_sizes": [], "default_left": [0, 0, 0, 0, 0, 0, 0, 0, 0, 0, 0, 0, 0], "id": 29, "left_children": [1, 3, -1, 5, 7, 9, -1, 11, -1, -1, -1, -1, -1], "loss_changes": [3087.1511, 739.18494, 0.0, 4.0552063, 89.528564, 9.681818, 0.0, 140.02039, 0.0, 0.0, 0.0, 0.0, 0.0], "parents": [2147483647, 0, 0, 1, 1, 3, 3, 4, 4, 5, 5, 7, 7], "right_children": [2, 4, -1, 6, 8, 10, -1, 12, -1, -1, -1, -1, -1], "split_conditions": [514.0, 1.0, 0.1013922, 1.0, 54.0, 1.0, -0.29773095, 32.0, -0.23395379, 0.16972238, 0.36975393, 0.28227088, -0.2387467], "split_indices": [0, 2, 0, 7, 6, 1, 0, 2, 0, 0, 0, 0, 0], "split_type": [0, 0, 0, 0, 0, 0, 0, 0, 0, 0, 0, 0, 0], "sum_hessian": [1023.47955, 580.7581, 442.7215, 57.24804, 523.5101, 4.466159, 52.78188, 517.406, 6.104027, 1.2346153, 3.2315435, 508.25, 9.15604], "tree_param": {"num_deleted": "0", "num_feature": "9", "num_nodes": "13", "size_leaf_vector": "1"}}, {"base_weights": [0.004069565, -0.019169608, 1.0032007, 1.8699307, 0.16324963, -0.051218204, 0.084410295], "categories": [], "categories_nodes": [], "categories_segments": [], "categories_sizes": [], "default_left": [0, 0, 0, 0, 0, 0, 0], "id": 30, "left_children": [1, -1, 3, 5, -1, -1, -1], "loss_changes": [2052.368, 0.0, 1788.3572, 257.20435, 0.0, 0.0, 0.0], "parents": [2147483647, 0, 0, 2, 2, 3, 3], "right_children": [2, -1, 4, 6, -1, -1, -1], "split_conditions": [1.0, -0.019169608, 514.0, 32.0, 0.16324963, -0.051218204, 0.084410295], "split_indices": [2, 0, 0, 2, 0, 0, 0], "split_type": [0, 0, 0, 0, 0, 0, 0], "sum_hessian": [1033.3262, 345.75308, 687.57306, 533.35657, 154.21645, 516.4808, 16.87584], "tree_param": {"num_deleted": "0", "num_feature": "9", "num_nodes": "7", "size_leaf_vector": "1"}}, {"base_weights": [-0.003903582, 1.507823, 0.1007064, -1.8541002, 1.8793354, -0.5827485, 0.24925771, -0.05969636, 0.16896893, 0.06877535, 0.28480864], "categories": [], "categories_nodes": [], "categories_segments": [], "categories_sizes": [], "default_left": [0, 0, 0, 0, 0, 0, 0, 0, 0, 0, 0], "id": 31, "left_children": [1, 3, -1, 5, 7, 9, -1, -1, -1, -1, -1], "loss_changes": [3104.7236, 735.68665, 0.0, 6.988434, 235.59119, 12.590339, 0.0, 0.0, 0.0, 0.0, 0.0], "parents": [2147483647, 0, 0, 1, 1, 3, 3, 4, 4, 5, 5], "right_children": [2, 4, -1, 6, 8, 10, -1, -1, -1, -1, -1], "split_conditions": [514.0, 1.0, 0.1007064, 1.0, 32.0, 1.0, 0.24925771, -0.05969636, 0.16896893, 0.06877535, 0.28480864], "split_indices": [0, 2, 0, 7, 2, 1, 0, 0, 0, 0, 0], "split_type": [0, 0, 0, 0, 0, 0, 0, 0, 0, 0, 0], "sum_hessian": [1029.2107, 585.23254, 443.97818, 57.839108, 527.39343, 5.0572276, 52.78188, 511.95383, 15.439597, 1.6461538, 3.411074], "tree_param": {"num_deleted": "0", "num_feature": "9", "num_nodes": "11", "size_leaf_vector": "1"}}, {"base_weights": [0.002027452, -0.27597302, 0.55760515, 1.8688195, -0.22226505, 1.9724653, -0.29821444, 0.07527622, -0.07692346], "categories": [], "categories_nodes": [], "categories_segments": [], "categories_sizes": [], "default_left": [0, 0, 0, 0, 0, 0, 0, 0, 0], "id": 32, "left_children": [1, -1, 3, 5, -1, 7, -1, -1, -1], "loss_changes": [1121.9741, 0.0, 2683.7617, 208.72461, 0.0, 45.435913, 0.0, 0.0, 0.0], "parents": [2147483647, 0, 0, 2, 2, 3, 3, 5, 5], "right_children": [2, -1, 4, 6, -1, 8, -1, -1, -1], "split_conditions": [1.0, -0.27597302, 514.0, 32.0, -0.22226505, 1.0, -0.29821444, 0.07527622, -0.07692346], "split_indices": [1, 0, 0, 2, 0, 2, 0, 0, 0], "split_type": [0, 0, 0, 0, 0, 0, 0, 0, 0], "sum_hessian": [1026.1587, 225.69984, 800.45886, 528.82965, 271.6292, 515.00586, 13.823826, 3.0520134, 511.95383], "tree_param": {"num_deleted": "0", "num_feature": "9", "num_nodes": "9", "size_leaf_vector": "1"}}, {"base_weights": [-0.006045003, 1.5056111, -0.5514831, 0.36559194, 1.8827955, 0.06596992, 0.27642262], "categories": [], "categories_nodes": [], "categories_segments": [], "categories_sizes": [], "default_left": [0, 0, 0, 0, 0, 0, 0], "id": 33, "left_children": [1, 3, -1, -1, 5, -1, -1], "loss_changes": [3119.509, 769.2019, 0.0, 0.0, 230.24084, 0.0, 0.0], "parents": [2147483647, 0, 0, 1, 1, 4, 4], "right_children": [2, 4, -1, -1, 6, -1, -1], "split_conditions": [514.0, 1.0, -0.5514831, 0.36559194, 32.0, 0.06596992, 0.27642262], "split_indices": [0, 2, 0, 0, 2, 0, 0], "split_type": [0, 0, 0, 0, 0, 0, 0], "sum_hessian": [1035.2705, 588.41986, 446.85068, 57.681675, 530.7382, 515.65765, 15.080537], "tree_param": {"num_deleted": "0", "num_feature": "9", "num_nodes": "7", "size_leaf_vector": "1"}}, {"base_weights": [0.0036746238, 1.4886097, 0.023464128, -1.8575767, 1.8642148, 0.022288365, -1.3927163, 0.020541383, 0.26162505, -0.5827485, 0.058163047, 0.21508928, -0.17805208], "categories": [], "categories_nodes": [], "categories_segments": [], "categories_sizes": [], "default_left": [0, 0, 0, 0, 0, 0, 0, 0, 0, 0, 0, 0, 0], "id": 34, "left_children": [1, 3, -1, 5, 7, -1, 9, -1, -1, 11, -1, -1, -1], "loss_changes": [3064.296, 747.8823, 0.0, 0.07551575, 267.89905, 0.0, 3.3938465, 0.0, 0.0, 12.590339, 0.0, 0.0, 0.0], "parents": [2147483647, 0, 0, 1, 1, 3, 3, 4, 4, 6, 6, 9, 9], "right_children": [2, 4, -1, 6, 8, -1, 10, -1, -1, 12, -1, -1, -1], "split_conditions": [514.0, 1.0, 0.023464128, 291.0, 32.0, 0.022288365, 1.0, 0.020541383, 0.26162505, 1.0, 0.058163047, 0.21508928, -0.17805208], "split_indices": [0, 2, 0, 0, 2, 0, 3, 0, 0, 1, 0, 0, 0], "split_type": [0, 0, 0, 0, 0, 0, 0, 0, 0, 0, 0, 0, 0], "sum_hessian": [1030.2438, 591.29236, 438.95135, 59.27535, 532.017, 46.139263, 13.136086, 514.42303, 17.59396, 5.0572276, 8.078859, 1.6461538, 3.411074], "tree_param": {"num_deleted": "0", "num_feature": "9", "num_nodes": "13", "size_leaf_vector": "1"}}, {"base_weights": [-0.006870004, 1.517982, -0.43939894, -1.8751067, 1.8723593, -0.6875452, -0.1822928, -0.23073143, -0.25729367, -0.11239196, 0.22870415], "categories": [], "categories_nodes": [], "categories_segments": [], "categories_sizes": [], "default_left": [0, 0, 0, 0, 0, 0, 0, 0, 0, 0, 0], "id": 35, "left_children": [1, 3, -1, 5, 7, 9, -1, -1, -1, -1, -1], "loss_changes": [3119.1638, 703.56726, 0.0, 4.317871, 249.03833, 9.424609, 0.0, 0.0, 0.0, 0.0, 0.0], "parents": [2147483647, 0, 0, 1, 1, 3, 3, 4, 4, 5, 5], "right_children": [2, 4, -1, 6, 8, 10, -1, -1, -1, -1, -1], "split_conditions": [514.0, 1.0, -0.43939894, 1.0, 32.0, 1.0, -0.1822928, -0.23073143, -0.25729367, -0.11239196, 0.22870415], "split_indices": [0, 2, 0, 7, 2, 1, 0, 0, 0, 0, 0], "split_type": [0, 0, 0, 0, 0, 0, 0, 0, 0, 0, 0], "sum_hessian": [1026.6145, 581.2, 445.41443, 54.555084, 526.64496, 4.2866287, 50.268456, 510.30768, 16.337248, 1.2346153, 3.0520134], "tree_param": {"num_deleted": "0", "num_feature": "9", "num_nodes": "11", "size_leaf_vector": "1"}}, {"base_weights": [0.009678977, 1.5179473, -0.023065785, -1.8518399, 1.8806369, -0.76567, -0.14247333, 0.24536364, 1.9082216, 0.30562523, -0.44393706, 0.4871216, 0.150862, -0.105702505, -0.26406324], "categories": [], "categories_nodes": [], "categories_segments": [], "categories_sizes": [], "default_left": [0, 0, 0, 0, 0, 0, 0, 0, 0, 0, 0, 0, 0, 0, 0], "id": 36, "left_children": [1, 3, -1, 5, 7, 9, -1, -1, 11, 13, -1, -1, -1, -1, -1], "loss_changes": [3132.3718, 725.91284, 0.0, 5.401291, 54.017822, 6.141939, 0.0, 0.0, 178.56726, 5.982869, 0.0, 0.0, 0.0, 0.0, 0.0], "parents": [2147483647, 0, 0, 1, 1, 3, 3, 4, 4, 5, 5, 8, 8, 9, 9], "right_children": [2, 4, -1, 6, 8, 10, -1, -1, 12, 14, -1, -1, -1, -1, -1], "split_conditions": [514.0, 1.0, -0.023065785, 1.0, 125.0, 1.0, -0.14247333, 0.24536364, 32.0, 1.0, -0.44393706, 0.4871216, 0.150862, -0.105702505, -0.26406324], "split_indices": [0, 2, 0, 4, 0, 1, 0, 0, 2, 3, 0, 0, 0, 0, 0], "split_type": [0, 0, 0, 0, 0, 0, 0, 0, 0, 0, 0, 0, 0, 0, 0], "sum_hessian": [1033.7156, 590.09644, 443.61914, 56.941456, 533.15497, 5.954879, 50.986576, 3.7701342, 529.3848, 2.723335, 3.2315435, 517.7154, 11.669463, 1.6461538, 1.0771812], "tree_param": {"num_deleted": "0", "num_feature": "9", "num_nodes": "15", "size_leaf_vector": "1"}}, {"base_weights": [0.0036835852, -0.4217546, 1.0226333, 1.8799994, -0.10885195, -0.021131592, 0.023912732], "categories": [], "categories_nodes": [], "categories_segments": [], "categories_sizes": [], "default_left": [0, 0, 0, 0, 0, 0, 0], "id": 37, "left_children": [1, -1, 3, 5, -1, -1, -1], "loss_changes": [2063.1614, 0.0, 1743.5892, 232.8501, 0.0, 0.0, 0.0], "parents": [2147483647, 0, 0, 2, 2, 3, 3], "right_children": [2, -1, 4, 6, -1, -1, -1], "split_conditions": [1.0, -0.4217546, 514.0, 32.0, -0.10885195, -0.021131592, 0.023912732], "split_indices": [2, 0, 0, 2, 0, 0, 0], "split_type": [0, 0, 0, 0, 0, 0, 0], "sum_hessian": [1018.73724, 345.394, 673.3432, 524.3331, 149.01007, 509.07306, 15.260067], "tree_param": {"num_deleted": "0", "num_feature": "9", "num_nodes": "7", "size_leaf_vector": "1"}}, {"base_weights": [0.011685678, 1.507131, 0.061980035, -1.8793938, 1.8726572, -0.77101606, -0.12318084, -0.056164287, -0.5898473, -0.15234868, 0.05305996], "categories": [], "categories_nodes": [], "categories_segments": [], "categories_sizes": [], "default_left": [0, 0, 0, 0, 0, 0, 0, 0, 0, 0, 0], "id": 38, "left_children": [1, 3, -1, 5, 7, 9, -1, -1, -1, -1, -1], "loss_changes": [3066.319, 728.17676, 0.0, 3.7660828, 249.05823, 9.923414, 0.0, 0.0, 0.0, 0.0, 0.0], "parents": [2147483647, 0, 0, 1, 1, 3, 3, 4, 4, 5, 5], "right_children": [2, 4, -1, 6, 8, 10, -1, -1, -1, -1, -1], "split_conditions": [514.0, 1.0, 0.061980035, 1.0, 32.0, 1.0, -0.12318084, -0.056164287, -0.5898473, -0.15234868, 0.05305996], "split_indices": [0, 2, 0, 7, 2, 1, 0, 0, 0, 0, 0], "split_type": [0, 0, 0, 0, 0, 0, 0, 0, 0, 0, 0], "sum_hessian": [1019.5907, 584.4095, 435.1812, 56.52992, 527.8795, 4.645689, 51.884228, 511.5423, 16.337248, 1.2346153, 3.411074], "tree_param": {"num_deleted": "0", "num_feature": "9", "num_nodes": "11", "size_leaf_vector": "1"}}, {"base_weights": [0.008282596, 0.16686663, 1.0132136, 1.8705332, -0.06097456, 0.05136831, 0.4219182], "categories": [], "categories_nodes": [], "categories_segments": [], "categories_sizes": [], "default_left": [0, 0, 0, 0, 0, 0, 0], "id": 39, "left_children": [1, -1, 3, 5, -1, -1, -1], "loss_changes": [2052.7617, 0.0, 1759.0182, 254.46936, 0.0, 0.0, 0.0], "parents": [2147483647, 0, 0, 2, 2, 3, 3], "right_children": [2, -1, 4, 6, -1, -1, -1], "split_conditions": [1.0, 0.16686663, 514.0, 32.0, -0.06097456, 0.05136831, 0.4219182], "split_indices": [2, 0, 0, 2, 0, 0, 0], "split_type": [0, 0, 0, 0, 0, 0, 0], "sum_hessian": [1025.4185, 343.95776, 681.46075, 530.2963, 151.16443, 513.6, 16.696308], "tree_param": {"num_deleted": "0", "num_feature": "9", "num_nodes": "7", "size_leaf_vector": "1"}}, {"base_weights": [0.0015766115, 1.5085524, 0.33945885, -1.8513794, 1.8726572, -0.6984761, -0.6105501, 1.9232644, 0.741839, -0.08804347, 0.100339815, 0.3541423, 0.024670208], "categories": [], "categories_nodes": [], "categories_segments": [], "categories_sizes": [], "default_left": [0, 0, 0, 0, 0, 0, 0, 0, 0, 0, 0, 0, 0], "id": 40, "left_children": [1, 3, -1, 5, 7, 9, -1, 11, -1, -1, -1, -1, -1], "loss_changes": [3092.4734, 719.9215, 0.0, 5.9739227, 100.16333, 13.485144, 0.0, 145.55591, 0.0, 0.0, 0.0, 0.0, 0.0], "parents": [2147483647, 0, 0, 1, 1, 3, 3, 4, 4, 5, 5, 7, 7], "right_children": [2, 4, -1, 6, 8, 10, -1, 12, -1, -1, -1, -1, -1], "split_conditions": [514.0, 1.0, 0.33945885, 1.0, 54.0, 1.0, -0.6105501, 32.0, 0.741839, -0.08804347, 0.100339815, 0.3541423, 0.024670208], "split_indices": [0, 2, 0, 7, 6, 1, 0, 2, 0, 0, 0, 0, 0], "split_type": [0, 0, 0, 0, 0, 0, 0, 0, 0, 0, 0, 0, 0], "sum_hessian": [1025.5676, 584.6415, 440.92618, 56.761925, 527.8795, 5.5958185, 51.166107, 521.0574, 6.822148, 1.6461538, 3.9496646, 511.5423, 9.5151005], "tree_param": {"num_deleted": "0", "num_feature": "9", "num_nodes": "13", "size_leaf_vector": "1"}}, {"base_weights": [0.016318751, 1.5219646, -0.30447438, -1.8441116, 1.8659309, -0.37869063, -0.27809435, 1.9726832, -0.1461819, 0.38504922, 0.23583573], "categories": [], "categories_nodes": [], "categories_segments": [], "categories_sizes": [], "default_left": [0, 0, 0, 0, 0, 0, 0, 0, 0, 0, 0], "id": 41, "left_children": [1, 3, -1, 5, 7, -1, -1, 9, -1, -1, -1], "loss_changes": [3117.0046, 684.8772, 0.0, 22.586716, 216.84021, 0.0, 0.0, 45.439087, 0.0, 0.0, 0.0], "parents": [2147483647, 0, 0, 1, 1, 3, 3, 4, 4, 7, 7], "right_children": [2, 4, -1, 6, 8, -1, -1, 10, -1, -1, -1], "split_conditions": [514.0, 1.0, -0.30447438, 1.0, 32.0, -0.37869063, -0.27809435, 1.0, -0.1461819, 0.38504922, 0.23583573], "split_indices": [0, 1, 0, 7, 2, 0, 0, 2, 0, 0, 0], "split_type": [0, 0, 0, 0, 0, 0, 0, 0, 0, 0, 0], "sum_hessian": [1027.0426, 587.5526, 439.48993, 54.068974, 533.48364, 1.6461538, 52.42282, 519.1212, 14.362416, 3.0520134, 516.0692], "tree_param": {"num_deleted": "0", "num_feature": "9", "num_nodes": "11", "size_leaf_vector": "1"}}, {"base_weights": [-0.023692902, 1.4983442, -0.54303545, -1.8504497, 1.8680588, -0.5827485, -0.5808133, 0.38460693, -0.30276874, 0.39180696, 0.091789626], "categories": [], "categories_nodes": [], "categories_segments": [], "categories_sizes": [], "default_left": [0, 0, 0, 0, 0, 0, 0, 0, 0, 0, 0], "id": 42, "left_children": [1, 3, -1, 5, 7, 9, -1, -1, -1, -1, -1], "loss_changes": [3043.2444, 712.01135, 0.0, 6.959137, 251.5238, 12.590339, 0.0, 0.0, 0.0, 0.0, 0.0], "parents": [2147483647, 0, 0, 1, 1, 3, 3, 4, 4, 5, 5], "right_children": [2, 4, -1, 6, 8, 10, -1, -1, -1, -1, -1], "split_conditions": [514.0, 1.0, -0.54303545, 1.0, 32.0, 1.0, -0.5808133, 0.38460693, -0.30276874, 0.39180696, 0.091789626], "split_indices": [0, 2, 0, 7, 2, 1, 0, 0, 0, 0, 0], "split_type": [0, 0, 0, 0, 0, 0, 0, 0, 0, 0, 0], "sum_hessian": [1012.03937, 571.2927, 440.74664, 56.402866, 514.88983, 5.0572276, 51.34564, 498.37308, 16.516779, 1.6461538, 3.411074], "tree_param": {"num_deleted": "0", "num_feature": "9", "num_nodes": "11", "size_leaf_vector": "1"}}, {"base_weights": [-0.028780324, -0.20038056, 0.5358016, 1.7299718, -1.1466563, 1.9722254, 0.41797534, 1.2998707, -0.022515425, 0.03997617, 0.49058965, -0.40865538, 0.23290798], "categories": [], "categories_nodes": [], "categories_segments": [], "categories_sizes": [], "default_left": [0, 0, 0, 0, 0, 0, 0, 0, 0, 0, 0, 0, 0], "id": 43, "left_children": [1, -1, 3, 5, 7, 9, -1, 11, -1, -1, -1, -1, -1], "loss_changes": [1113.6765, 0.0, 1588.2493, 413.75244, 681.5332, 37.02771, 0.0, 184.49329, 0.0, 0.0, 0.0, 0.0, 0.0], "parents": [2147483647, 0, 0, 2, 2, 3, 3, 4, 4, 5, 5, 7, 7], "right_children": [2, -1, 4, 6, 8, 10, -1, 12, -1, -1, -1, -1, -1], "split_conditions": [1.0, -0.20038056, 16.0, 514.0, 514.0, 132.0, 0.41797534, 16.0, -0.022515425, 0.03997617, 0.49058965, -0.40865538, 0.23290798], "split_indices": [1, 0, 1, 0, 0, 0, 0, 5, 0, 0, 0, 0, 0], "split_type": [0, 0, 0, 0, 0, 0, 0, 0, 0, 0, 0, 0, 0], "sum_hessian": [1017.99426, 229.46999, 788.52423, 461.16888, 327.35538, 432.98264, 28.186241, 83.912415, 243.44296, 2.513423, 430.4692, 14.362416, 69.549995], "tree_param": {"num_deleted": "0", "num_feature": "9", "num_nodes": "13", "size_leaf_vector": "1"}}, {"base_weights": [-0.026405714, 1.4971976, -0.48188078, -1.8767004, 1.8574555, 0.69368047, -0.49015942, 1.9692123, 0.5480486, 0.16264713, 1.3297746, 0.18070723, 0.05397074], "categories": [], "categories_nodes": [], "categories_segments": [], "categories_sizes": [], "default_left": [0, 0, 0, 0, 0, 0, 0, 0, 0, 0, 0, 0, 0], "id": 44, "left_children": [1, 3, -1, 5, 7, -1, -1, 9, -1, -1, 11, -1, -1], "loss_changes": [3076.477, 706.18616, 0.0, 16.761047, 221.656, 0.0, 0.0, 6.0117188, 0.0, 0.0, 41.199474, 0.0, 0.0], "parents": [2147483647, 0, 0, 1, 1, 3, 3, 4, 4, 7, 7, 10, 10], "right_children": [2, 4, -1, 6, 8, -1, -1, 10, -1, -1, 12, -1, -1], "split_conditions": [514.0, 1.0, -0.48188078, 1.0, 32.0, 0.69368047, -0.49015942, 186.0, 0.5480486, 0.16264713, 131.0, 0.18070723, 0.05397074], "split_indices": [0, 1, 0, 7, 2, 0, 0, 1, 0, 0, 0, 0, 0], "split_type": [0, 0, 0, 0, 0, 0, 0, 0, 0, 0, 0, 0, 0], "sum_hessian": [1023.4409, 577.12885, 446.31207, 55.273205, 521.8556, 1.2346153, 54.03859, 507.13412, 14.721477, 484.7923, 22.341843, 18.930769, 3.411074], "tree_param": {"num_deleted": "0", "num_feature": "9", "num_nodes": "13", "size_leaf_vector": "1"}}, {"base_weights": [0.003226515, 1.5138338, -0.13866103, -1.8541002, 1.885063, -0.36426565, -0.04114253, 1.9330487, 0.26995486, 0.620334, 0.42595834], "categories": [], "categories_nodes": [], "categories_segments": [], "categories_sizes": [], "default_left": [0, 0, 0, 0, 0, 0, 0, 0, 0, 0, 0], "id": 45, "left_children": [1, 3, -1, 5, 7, -1, -1, 9, -1, -1, -1], "loss_changes": [3114.8552, 738.12195, 0.0, 6.988434, 95.29309, 0.0, 0.0, 126.22827, 0.0, 0.0, 0.0], "parents": [2147483647, 0, 0, 1, 1, 3, 3, 4, 4, 7, 7], "right_children": [2, 4, -1, 6, 8, -1, -1, 10, -1, -1, -1], "split_conditions": [514.0, 1.0, -0.13866103, 1.0, 54.0, -0.36426565, -0.04114253, 32.0, 0.26995486, 0.620334, 0.42595834], "split_indices": [0, 2, 0, 7, 6, 0, 0, 2, 0, 0, 0], "split_type": [0, 0, 0, 0, 0, 0, 0, 0, 0, 0, 0], "sum_hessian": [1029.6527, 586.5721, 443.08054, 57.839108, 528.73303, 5.0572276, 52.78188, 522.2699, 6.463087, 514.01154, 8.258389], "tree_param": {"num_deleted": "0", "num_feature": "9", "num_nodes": "11", "size_leaf_vector": "1"}}, {"base_weights": [0.029633014, 1.5270016, -0.100159906, -1.8513794, 1.8798716, 0.20297599, -0.030974245, 1.9274186, -0.19654949, 0.8634765, 0.259816, -0.7630902, -0.14021024], "categories": [], "categories_nodes": [], "categories_segments": [], "categories_sizes": [], "default_left": [0, 0, 0, 0, 0, 0, 0, 0, 0, 0, 0, 0, 0], "id": 46, "left_children": [1, 3, -1, 5, 7, -1, -1, 9, -1, 11, -1, -1, -1], "loss_changes": [3193.5127, 725.25256, 0.0, 7.7327423, 97.742676, 0.0, 0.0, 37.865845, 0.0, 101.200935, 0.0, 0.0, 0.0], "parents": [2147483647, 0, 0, 1, 1, 3, 3, 4, 4, 7, 7, 9, 9], "right_children": [2, 4, -1, 6, 8, -1, -1, 10, -1, 12, -1, -1, -1], "split_conditions": [514.0, 1.0, -0.100159906, 1.0, 54.0, 0.20297599, -0.030974245, 1.0, -0.19654949, 1.0, 0.259816, -0.7630902, -0.14021024], "split_indices": [0, 2, 0, 7, 6, 0, 0, 4, 0, 3, 0, 0, 0], "split_type": [0, 0, 0, 0, 0, 0, 0, 0, 0, 0, 0, 0, 0], "sum_hessian": [1051.1189, 604.4478, 446.67114, 56.761925, 547.68585, 4.6981673, 52.06376, 541.0433, 6.6426177, 33.61634, 507.4269, 9.33557, 24.28077], "tree_param": {"num_deleted": "0", "num_feature": "9", "num_nodes": "13", "size_leaf_vector": "1"}}, {"base_weights": [0.0008767691, 1.5204235, 0.5964275, -1.8770926, 1.8806539, -0.80889267, 0.26931962, 0.26822272, 0.5118273, 0.1398739, 0.19048366], "categories": [], "categories_nodes": [], "categories_segments": [], "categories_sizes": [], "default_left": [0, 0, 0, 0, 0, 0, 0, 0, 0, 0, 0], "id": 47, "left_children": [1, 3, -1, 5, 7, 9, -1, -1, -1, -1, -1], "loss_changes": [3118.3035, 717.8728, 0.0, 3.4891205, 232.89124, 10.150756, 0.0, 0.0, 0.0, 0.0, 0.0], "parents": [2147483647, 0, 0, 1, 1, 3, 3, 4, 4, 5, 5], "right_children": [2, 4, -1, 6, 8, 10, -1, -1, -1, -1, -1], "split_conditions": [514.0, 1.0, 0.5964275, 1.0, 32.0, 1.0, 0.26931962, 0.26822272, 0.5118273, 0.1398739, 0.19048366], "split_indices": [0, 2, 0, 7, 2, 1, 0, 0, 0, 0, 0], "split_type": [0, 0, 0, 0, 0, 0, 0, 0, 0, 0, 0], "sum_hessian": [1025.9268, 582.6666, 443.26007, 55.452736, 527.2139, 4.8252196, 50.627518, 511.95383, 15.260067, 1.2346153, 3.590604], "tree_param": {"num_deleted": "0", "num_feature": "9", "num_nodes": "11", "size_leaf_vector": "1"}}, {"base_weights": [0.029956684, 1.5149733, 0.029689763, -1.8527523, 1.8773886, -0.6235452, -0.1738415, 0.5240105, -0.4230372, -0.12272933, -0.092483394], "categories": [], "categories_nodes": [], "categories_segments": [], "categories_sizes": [], "default_left": [0, 0, 0, 0, 0, 0, 0, 0, 0, 0, 0], "id": 48, "left_children": [1, 3, -1, 5, 7, 9, -1, -1, -1, -1, -1], "loss_changes": [3101.1333, 729.532, 0.0, 6.627655, 243.81287, 11.171104, 0.0, 0.0, 0.0, 0.0, 0.0], "parents": [2147483647, 0, 0, 1, 1, 3, 3, 4, 4, 5, 5], "right_children": [2, 4, -1, 6, 8, 10, -1, -1, -1, -1, -1], "split_conditions": [514.0, 1.0, 0.029689763, 1.0, 32.0, 1.0, -0.1738415, 0.5240105, -0.4230372, -0.12272933, -0.092483394], "split_indices": [0, 2, 0, 6, 2, 1, 0, 0, 0, 0, 0], "split_type": [0, 0, 0, 0, 0, 0, 0, 0, 0, 0, 0], "sum_hessian": [1029.056, 593.8748, 435.1812, 57.300518, 536.57434, 5.2367578, 52.06376, 520.5961, 15.9781885, 1.8256841, 3.411074], "tree_param": {"num_deleted": "0", "num_feature": "9", "num_nodes": "11", "size_leaf_vector": "1"}}, {"base_weights": [0.021671392, 1.5252053, -0.5637148, -1.848074, 1.8762834, -0.49344274, -0.14306347, 0.63866884, -0.1393522, -0.10793907, 0.26846695], "categories": [], "categories_nodes": [], "categories_segments": [], "categories_sizes": [], "default_left": [0, 0, 0, 0, 0, 0, 0, 0, 0, 0, 0], "id": 49, "left_children": [1, 3, -1, 5, 7, 9, -1, -1, -1, -1, -1], "loss_changes": [3144.802, 707.03, 0.0, 7.706192, 246.52112, 11.904037, 0.0, 0.0, 0.0, 0.0, 0.0], "parents": [2147483647, 0, 0, 1, 1, 3, 3, 4, 4, 5, 5], "right_children": [2, 4, -1, 6, 8, 10, -1, -1, -1, -1, -1], "split_conditions": [514.0, 1.0, -0.5637148, 1.0, 32.0, 1.0, -0.14306347, 0.63866884, -0.1393522, -0.10793907, 0.26846695], "split_indices": [0, 2, 0, 7, 2, 1, 0, 0, 0, 0, 0], "split_type": [0, 0, 0, 0, 0, 0, 0, 0, 0, 0, 0], "sum_hessian": [1034.906, 593.08215, 441.82382, 55.505215, 537.57697, 4.6981673, 50.80705, 521.4192, 16.157719, 1.6461538, 3.0520134], "tree_param": {"num_deleted": "0", "num_feature": "9", "num_nodes": "11", "size_leaf_vector": "1"}}, {"base_weights": [0.016945355, 0.7767456, -1.8969413, -1.5845498, 1.5019724, -1.2655234, -0.22854197, -0.20815775, 0.7771113, 1.9665183, -0.02803877, 0.26283988, 0.043734945, 0.14308244, 0.005135088, 0.08584636, -0.07595398], "categories": [], "categories_nodes": [], "categories_segments": [], "categories_sizes": [], "default_left": [0, 0, 0, 0, 0, 0, 0, 0, 0, 0, 0, 0, 0, 0, 0, 0, 0], "id": 50, "left_children": [1, 3, 5, 7, 9, 11, -1, -1, 13, 15, -1, -1, -1, -1, -1, -1, -1], "loss_changes": [1392.7284, 1176.3867, 13.728149, 154.55368, 850.13416, 80.25576, 0.0, 0.0, 70.82403, 50.47827, 0.0, 0.0, 0.0, 0.0, 0.0, 0.0, 0.0], "parents": [2147483647, 0, 0, 1, 1, 2, 2, 3, 3, 4, 4, 5, 5, 8, 8, 9, 9], "right_children": [2, 4, 6, 8, 10, 12, -1, -1, 14, 16, -1, -1, -1, -1, -1, -1, -1], "split_conditions": [16.0, 3.0, 512.0, 10.0, 514.0, 128.0, -0.22854197, -0.20815775, 342.0, 43.0, -0.02803877, 0.26283988, 0.043734945, 0.14308244, 0.005135088, 0.08584636, -0.07595398], "split_indices": [3, 8, 0, 3, 0, 0, 0, 0, 0, 6, 0, 0, 0, 0, 0, 0, 0], "split_type": [0, 0, 0, 0, 0, 0, 0, 0, 0, 0, 0, 0, 0, 0, 0, 0, 0], "sum_hessian": [955.7337, 684.5615, 271.1722, 160.57005, 523.99146, 37.190086, 233.98213, 137.3995, 23.170551, 462.50613, 61.485302, 30.677656, 6.512431, 16.281078, 6.889474, 459.1264, 3.379742], "tree_param": {"num_deleted": "0", "num_feature": "9", "num_nodes": "17", "size_leaf_vector": "1"}}, {"base_weights": [0.008946064, 1.4831296, -0.058795355, 1.8508953, -1.7310374, 1.9278752, -0.59160554, -0.1982058, 0.17590562, 1.9711757, -0.41104582, 0.41088757, 1.2040622, 0.24111578, -0.043593377, 0.1046807, 0.31588128], "categories": [], "categories_nodes": [], "categories_segments": [], "categories_sizes": [], "default_left": [0, 0, 0, 0, 0, 0, 0, 0, 0, 0, 0, 0, 0, 0, 0, 0, 0], "id": 51, "left_children": [1, 3, -1, 5, 7, 9, -1, -1, -1, 11, 13, -1, 15, -1, -1, -1, -1], "loss_changes": [2763.908, 640.3932, 0.0, 139.9148, 45.074158, 48.885986, 0.0, 0.0, 0.0, 6.318115, 25.810635, 0.0, 32.38133, 0.0, 0.0, 0.0, 0.0], "parents": [2147483647, 0, 0, 1, 1, 3, 3, 4, 4, 5, 5, 9, 9, 10, 10, 12, 12], "right_children": [2, 4, -1, 6, 8, 10, -1, -1, -1, 12, 14, -1, 16, -1, -1, -1, -1], "split_conditions": [514.0, 16.0, -0.058795355, 17.0, 513.0, 37.0, -0.59160554, -0.1982058, 0.17590562, 135.0, 1.0, 0.41088757, 131.0, 0.24111578, -0.043593377, 0.1046807, 0.31588128], "split_indices": [0, 6, 0, 2, 0, 4, 0, 0, 0, 1, 2, 0, 0, 0, 0, 0, 0], "split_type": [0, 0, 0, 0, 0, 0, 0, 0, 0, 0, 0, 0, 0, 0, 0, 0, 0], "sum_hessian": [933.60956, 538.04974, 395.55978, 483.1875, 54.862274, 473.6982, 9.489275, 51.60606, 3.2562156, 465.2424, 8.455818, 449.35776, 15.884644, 5.199603, 3.2562156, 13.024862, 2.8597815], "tree_param": {"num_deleted": "0", "num_feature": "9", "num_nodes": "17", "size_leaf_vector": "1"}}, {"base_weights": [-0.03609137, 0.73736066, -1.9440198, -1.4404721, 1.4661652, -1.5682993, -0.054404005, 0.10173603, -0.17291348, 1.9702015, -0.37933525, -0.38405702, -0.1322593, 0.33053708, 0.2574487, -0.11559704, 0.45402008], "categories": [], "categories_nodes": [], "categories_segments": [], "categories_sizes": [], "default_left": [0, 0, 0, 0, 0, 0, 0, 0, 0, 0, 0, 0, 0, 0, 0, 0, 0], "id": 52, "left_children": [1, 3, 5, 7, 9, 11, -1, 13, -1, 15, -1, -1, -1, -1, -1, -1, -1], "loss_changes": [1373.1091, 1053.0353, 1.6621704, 139.72623, 863.651, 42.679794, 0.0, 165.22275, 0.0, 40.37329, 0.0, 0.0, 0.0, 0.0, 0.0, 0.0, 0.0], "parents": [2147483647, 0, 0, 1, 1, 2, 2, 3, 3, 4, 4, 5, 5, 7, 7, 9, 9], "right_children": [2, 4, 6, 8, 10, 12, -1, 14, -1, 16, -1, -1, -1, -1, -1, -1, -1], "split_conditions": [16.0, 3.0, 512.0, 342.0, 514.0, 128.0, -0.054404005, 291.0, -0.17291348, 43.0, -0.37933525, -0.38405702, -0.1322593, 0.33053708, 0.2574487, -0.11559704, 0.45402008], "split_indices": [3, 8, 0, 0, 0, 0, 0, 0, 0, 6, 0, 0, 0, 0, 0, 0, 0], "split_type": [0, 0, 0, 0, 0, 0, 0, 0, 0, 0, 0, 0, 0, 0, 0, 0, 0], "sum_hessian": [928.5141, 661.11804, 267.39603, 165.52261, 495.59543, 33.803883, 233.59216, 43.33194, 122.19067, 432.55023, 63.045185, 30.547667, 3.2562156, 20.538431, 22.793509, 429.82047, 2.7297914], "tree_param": {"num_deleted": "0", "num_feature": "9", "num_nodes": "17", "size_leaf_vector": "1"}}, {"base_weights": [0.016040824, 1.4785248, 0.1702614, 1.8457428, -1.7347409, 0.4448869, -0.40182835, -0.2690258, 0.22532688, 0.4691702, 0.18066803], "categories": [], "categories_nodes": [], "categories_segments": [], "categories_sizes": [], "default_left": [0, 0, 0, 0, 0, 0, 0, 0, 0, 0, 0], "id": 53, "left_children": [1, 3, -1, 5, 7, 9, -1, -1, -1, -1, -1], "loss_changes": [2780.0383, 648.94214, 0.0, 102.24219, 45.128708, 173.74397, 0.0, 0.0, 0.0, 0.0, 0.0], "parents": [2147483647, 0, 0, 1, 1, 3, 3, 4, 4, 5, 5], "right_children": [2, 4, -1, 6, 8, 10, -1, -1, -1, -1, -1], "split_conditions": [514.0, 16.0, 0.1702614, 1.0, 513.0, 1.0, -0.40182835, -0.2690258, 0.22532688, 0.4691702, 0.18066803], "split_indices": [0, 6, 0, 8, 0, 3, 0, 0, 0, 0, 0], "split_type": [0, 0, 0, 0, 0, 0, 0, 0, 0, 0, 0], "sum_hessian": [943.24176, 546.2521, 396.9897, 490.60986, 55.642216, 47.76453, 442.8453, 52.385998, 3.2562156, 18.45859, 29.30594], "tree_param": {"num_deleted": "0", "num_feature": "9", "num_nodes": "11", "size_leaf_vector": "1"}}, {"base_weights": [-0.0029973113, 1.4772599, 0.056273807, 1.8012066, -0.08952261, 1.8934228, -0.13795365, 1.9783347, 0.59076416, -0.09849022, -0.041435834, -0.099997014, 0.10162075], "categories": [], "categories_nodes": [], "categories_segments": [], "categories_sizes": [], "default_left": [0, 0, 0, 0, 0, 0, 0, 0, 0, 0, 0, 0, 0], "id": 54, "left_children": [1, 3, -1, 5, -1, 7, -1, 9, 11, -1, -1, -1, -1], "loss_changes": [2775.3113, 604.32104, 0.0, 169.45825, 0.0, 52.17285, 0.0, 28.350098, 101.49477, 0.0, 0.0, 0.0, 0.0], "parents": [2147483647, 0, 0, 1, 1, 3, 3, 5, 5, 7, 7, 8, 8], "right_children": [2, 4, -1, 6, -1, 8, -1, 10, 12, -1, -1, -1, -1], "split_conditions": [514.0, 64.0, 0.056273807, 43.0, -0.08952261, 15.0, -0.13795365, 66.0, 2.0, -0.09849022, -0.041435834, -0.099997014, 0.10162075], "split_indices": [0, 4, 0, 6, 0, 1, 0, 7, 4, 0, 0, 0, 0], "split_type": [0, 0, 0, 0, 0, 0, 0, 0, 0, 0, 0, 0, 0], "sum_hessian": [939.1991, 538.9597, 400.23944, 492.9432, 46.016483, 481.2441, 11.699106, 451.3076, 29.936499, 449.35776, 1.949851, 10.399206, 19.537292], "tree_param": {"num_deleted": "0", "num_feature": "9", "num_nodes": "13", "size_leaf_vector": "1"}}, {"base_weights": [0.05745241, 1.5053989, -0.062332507, 1.85932, -1.7359529, 1.9345216, 0.37711164, 0.0060305633, 0.39669624, 1.9709877, -0.31858763, 0.043020353, 1.155476, -0.16881776, -0.13551822, -0.28067693, 0.65640646], "categories": [], "categories_nodes": [], "categories_segments": [], "categories_sizes": [], "default_left": [0, 0, 0, 0, 0, 0, 0, 0, 0, 0, 0, 0, 0, 0, 0, 0, 0], "id": 55, "left_children": [1, 3, -1, 5, 7, 9, -1, -1, -1, 11, 13, -1, 15, -1, -1, -1, -1], "loss_changes": [2903.2388, 660.3131, 0.0, 146.37976, 45.14656, 42.28418, 0.0, 0.0, 0.0, 7.816284, 24.480532, 0.0, 34.944424, 0.0, 0.0, 0.0, 0.0], "parents": [2147483647, 0, 0, 1, 1, 3, 3, 4, 4, 5, 5, 9, 9, 10, 10, 12, 12], "right_children": [2, 4, -1, 6, 8, 10, -1, -1, -1, 12, 14, -1, 16, -1, -1, -1, -1], "split_conditions": [514.0, 16.0, -0.062332507, 17.0, 513.0, 37.0, 0.37711164, 0.0060305633, 0.39669624, 135.0, 291.0, 0.043020353, 131.0, -0.16881776, -0.13551822, -0.28067693, 0.65640646], "split_indices": [0, 6, 0, 2, 0, 4, 0, 0, 0, 1, 0, 0, 0, 0, 0, 0, 0], "split_type": [0, 0, 0, 0, 0, 0, 0, 0, 0, 0, 0, 0, 0, 0, 0, 0, 0], "sum_hessian": [974.88104, 571.7818, 403.0992, 515.87964, 55.902195, 506.0004, 9.879246, 52.645977, 3.2562156, 498.0645, 7.9358582, 481.9199, 16.144625, 4.6796427, 3.2562156, 13.024862, 3.1197617], "tree_param": {"num_deleted": "0", "num_feature": "9", "num_nodes": "17", "size_leaf_vector": "1"}}, {"base_weights": [0.0022586677, 1.482661, 0.44164792, 1.8487798, 0.12185276, 0.21884578, -0.012429285, 0.05788134, 1.2281344, 0.15672381, 0.4279156], "categories": [], "categories_nodes": [], "categories_segments": [], "categories_sizes": [], "default_left": [0, 0, 0, 0, 0, 0, 0, 0, 0, 0, 0], "id": 56, "left_children": [1, 3, -1, 5, -1, 7, -1, -1, 9, -1, -1], "loss_changes": [2814.148, 693.03, 0.0, 117.91882, 0.0, 90.32261, 0.0, 0.0, 60.74497, 0.0, 0.0], "parents": [2147483647, 0, 0, 1, 1, 3, 3, 5, 5, 8, 8], "right_children": [2, 4, -1, 6, -1, 8, -1, -1, 10, -1, -1], "split_conditions": [514.0, 16.0, 0.44164792, 1.0, 0.12185276, 2.0, -0.012429285, 0.05788134, 291.0, 0.15672381, 0.4279156], "split_indices": [0, 6, 0, 8, 0, 4, 0, 0, 0, 0, 0], "split_type": [0, 0, 0, 0, 0, 0, 0, 0, 0, 0, 0], "sum_hessian": [949.7413, 545.6021, 404.13913, 493.60608, 51.99603, 40.99212, 452.61395, 13.128997, 27.863121, 5.069613, 22.793509], "tree_param": {"num_deleted": "0", "num_feature": "9", "num_nodes": "11", "size_leaf_vector": "1"}}, {"base_weights": [0.004725532, 1.4711044, -0.30481747, 1.7995284, -1.7101271, 1.897268, -0.23786236, -0.2339889, -0.10226848, 1.9674335, 0.23565102, -0.53245515, 1.2488697, 0.017147811, -0.8347407], "categories": [], "categories_nodes": [], "categories_segments": [], "categories_sizes": [], "default_left": [0, 0, 0, 0, 0, 0, 0, 0, 0, 0, 0, 0, 0, 0, 0], "id": 57, "left_children": [1, 3, -1, 5, 7, 9, -1, -1, -1, 11, -1, -1, 13, -1, -1], "loss_changes": [2787.4524, 576.06506, 0.0, 181.0835, 41.71347, 129.07275, 0.0, 0.0, 0.0, 7.1601562, 0.0, 0.0, 39.563866, 0.0, 0.0], "parents": [2147483647, 0, 0, 1, 1, 3, 3, 4, 4, 5, 5, 9, 9, 12, 12], "right_children": [2, 4, -1, 6, 8, 10, -1, -1, -1, 12, -1, -1, 14, -1, -1], "split_conditions": [514.0, 64.0, -0.30481747, 30.0, 1.0, 146.0, -0.23786236, -0.2339889, -0.10226848, 135.0, 0.23565102, -0.53245515, 131.0, 0.017147811, -0.8347407], "split_indices": [0, 4, 0, 2, 6, 7, 0, 0, 0, 1, 0, 0, 0, 0, 0], "split_type": [0, 0, 0, 0, 0, 0, 0, 0, 0, 0, 0, 0, 0, 0, 0], "sum_hessian": [948.57135, 547.422, 401.14935, 496.5894, 50.83258, 484.11035, 12.479047, 3.5161958, 47.316387, 475.531, 8.579345, 455.87018, 19.66082, 16.281078, 3.379742], "tree_param": {"num_deleted": "0", "num_feature": "9", "num_nodes": "15", "size_leaf_vector": "1"}}, {"base_weights": [0.03698851, 1.4847487, -0.25694403, 1.8497024, -1.7406919, 1.9229794, -0.0057555763, -0.26128393, -0.087746, 0.83265626, 0.9099564, 0.28780204, 0.4262413], "categories": [], "categories_nodes": [], "categories_segments": [], "categories_sizes": [], "default_left": [0, 0, 0, 0, 0, 0, 0, 0, 0, 0, 0, 0, 0], "id": 58, "left_children": [1, 3, -1, 5, 7, 9, -1, -1, -1, 11, -1, -1, -1], "loss_changes": [2846.294, 668.2584, 0.0, 139.69116, 45.216324, 37.874023, 0.0, 0.0, 0.0, 97.33031, 0.0, 0.0, 0.0], "parents": [2147483647, 0, 0, 1, 1, 3, 3, 4, 4, 5, 5, 9, 9], "right_children": [2, 4, -1, 6, 8, 10, -1, -1, -1, 12, -1, -1, -1], "split_conditions": [514.0, 16.0, -0.25694403, 17.0, 513.0, 1.0, -0.0057555763, -0.26128393, -0.087746, 1.0, 0.9099564, 0.28780204, 0.4262413], "split_indices": [0, 6, 0, 2, 0, 8, 0, 0, 0, 2, 0, 0, 0], "split_type": [0, 0, 0, 0, 0, 0, 0, 0, 0, 0, 0, 0, 0], "sum_hessian": [965.5024, 563.963, 401.53934, 507.0209, 56.942116, 497.53165, 9.489275, 53.685898, 3.2562156, 31.892815, 465.63882, 9.099305, 22.793509], "tree_param": {"num_deleted": "0", "num_feature": "9", "num_nodes": "13", "size_leaf_vector": "1"}}, {"base_weights": [-0.055243045, 1.4438334, -0.35157582, 1.8305789, -1.7353482, 1.917476, -0.24256027, -0.15129438, -0.29376704, 1.9662062, -0.4739808, -0.658656, 0.103796385, 0.62021786, 0.60632294, -0.13486761, 0.1431104, -0.549088, 0.39944485], "categories": [], "categories_nodes": [], "categories_segments": [], "categories_sizes": [], "default_left": [0, 0, 0, 0, 0, 0, 0, 0, 0, 0, 0, 0, 0, 0, 0, 0, 0, 0, 0], "id": 59, "left_children": [1, 3, -1, 5, 7, 9, -1, -1, 11, 13, 15, -1, -1, -1, 17, -1, -1, -1, -1], "loss_changes": [2673.9695, 640.968, 0.0, 150.45691, 17.741272, 53.68579, 0.0, 0.0, 24.124104, 16.406128, 26.718042, 0.0, 0.0, 0.0, 28.56594, 0.0, 0.0, 0.0, 0.0], "parents": [2147483647, 0, 0, 1, 1, 3, 3, 4, 4, 5, 5, 8, 8, 9, 9, 10, 10, 14, 14], "right_children": [2, 4, -1, 6, 8, 10, -1, -1, 12, 14, 16, -1, -1, -1, 18, -1, -1, -1, -1], "split_conditions": [514.0, 16.0, -0.35157582, 17.0, 1.0, 37.0, -0.24256027, -0.15129438, 359.0, 135.0, 291.0, -0.658656, 0.103796385, 0.62021786, 192.0, -0.13486761, 0.1431104, -0.549088, 0.39944485], "split_indices": [0, 6, 0, 2, 1, 4, 0, 0, 0, 1, 0, 0, 0, 0, 1, 0, 0, 0, 0], "split_type": [0, 0, 0, 0, 0, 0, 0, 0, 0, 0, 0, 0, 0, 0, 0, 0, 0, 0, 0], "sum_hessian": [917.5755, 517.7261, 399.84946, 461.95386, 55.772205, 451.68463, 10.269216, 47.966335, 7.805868, 442.83887, 8.845789, 4.5496526, 3.2562156, 433.07666, 9.762183, 5.589573, 3.2562156, 3.2497518, 6.512431], "tree_param": {"num_deleted": "0", "num_feature": "9", "num_nodes": "19", "size_leaf_vector": "1"}}, {"base_weights": [-0.07595857, 0.6923444, -1.8960476, -1.4751095, 1.1068633, -1.5699743, 0.27023593, 1.2040622, -0.3417773, 1.4278289, 0.11267389, -0.107223764, -0.41092962, 0.08655057, -0.06685383, 1.8114055, 0.4572864, -0.08219285, -0.14376982, 1.9473155, -0.26563248, 0.023040269, -0.2990703], "categories": [], "categories_nodes": [], "categories_segments": [], "categories_sizes": [], "default_left": [0, 0, 0, 0, 0, 0, 0, 0, 0, 0, 0, 0, 0, 0, 0, 0, 0, 0, 0, 0, 0, 0, 0], "id": 60, "left_children": [1, 3, 5, 7, 9, 11, -1, 13, -1, 15, -1, -1, 17, -1, -1, 19, -1, -1, -1, 21, -1, -1, -1], "loss_changes": [1271.2611, 576.0342, 5.1657715, 140.9876, 531.82825, 28.593216, 0.0, 32.38133, 0.0, 636.33923, 0.0, 0.0, 56.517456, 0.0, 0.0, 223.1073, 0.0, 0.0, 0.0, 76.60864, 0.0, 0.0, 0.0], "parents": [2147483647, 0, 0, 1, 1, 2, 2, 3, 3, 4, 4, 5, 5, 7, 7, 9, 9, 12, 12, 15, 15, 19, 19], "right_children": [2, 4, 6, 8, 10, 12, -1, 14, -1, 16, -1, -1, 18, -1, -1, 20, -1, -1, -1, 22, -1, -1, -1], "split_conditions": [16.0, 1.0, 1.0, 342.0, 16.0, 6.0, 0.27023593, 132.0, -0.3417773, 146.0, 0.11267389, -0.107223764, 512.0, 0.08655057, -0.06685383, 514.0, 0.4572864, -0.08219285, -0.14376982, 37.0, -0.26563248, 0.023040269, -0.2990703], "split_indices": [3, 7, 5, 0, 6, 2, 0, 0, 0, 7, 0, 0, 0, 0, 0, 0, 0, 0, 0, 4, 0, 0, 0], "split_type": [0, 0, 0, 0, 0, 0, 0, 0, 0, 0, 0, 0, 0, 0, 0, 0, 0, 0, 0, 0, 0, 0, 0], "sum_hessian": [907.1569, 638.3245, 268.8324, 102.06806, 536.2565, 64.22802, 204.60437, 15.884644, 86.18342, 485.95032, 50.306156, 47.576366, 16.651657, 2.8597815, 13.024862, 436.94406, 49.006256, 6.512431, 10.139226, 421.8652, 15.078848, 416.7956, 5.069613], "tree_param": {"num_deleted": "0", "num_feature": "9", "num_nodes": "23", "size_leaf_vector": "1"}}, {"base_weights": [-0.005531097, 0.7583867, -1.9432224, 1.7066203, 0.054825746, -1.5515499, -0.36687824, 1.8436524, 0.119791925, -0.06576709, 0.06601823, 1.9469663, -0.3228802, 1.9705588, 1.0138903, 0.03743002, -0.07679318, -0.083581835, 0.27862778], "categories": [], "categories_nodes": [], "categories_segments": [], "categories_sizes": [], "default_left": [0, 0, 0, 0, 0, 0, 0, 0, 0, 0, 0, 0, 0, 0, 0, 0, 0, 0, 0], "id": 61, "left_children": [1, 3, 5, 7, -1, 9, -1, 11, -1, -1, -1, 13, -1, 15, 17, -1, -1, -1, -1], "loss_changes": [1385.2922, 1751.7068, 1.9021606, 249.93176, 0.0, 42.433594, 0.0, 187.58264, 0.0, 0.0, 0.0, 8.328735, 0.0, 42.406006, 29.91183, 0.0, 0.0, 0.0, 0.0], "parents": [2147483647, 0, 0, 1, 1, 2, 2, 3, 3, 5, 5, 7, 7, 11, 11, 13, 13, 14, 14], "right_children": [2, 4, 6, 8, -1, 10, -1, 12, -1, -1, -1, 14, -1, 16, 18, -1, -1, -1, -1], "split_conditions": [16.0, 514.0, 512.0, 64.0, 0.054825746, 128.0, -0.36687824, 30.0, 0.119791925, -0.06576709, 0.06601823, 135.0, -0.3228802, 43.0, 131.0, 0.03743002, -0.07679318, -0.083581835, 0.27862778], "split_indices": [3, 0, 0, 4, 0, 0, 0, 2, 0, 0, 0, 1, 0, 6, 0, 0, 0, 0, 0], "split_type": [0, 0, 0, 0, 0, 0, 0, 0, 0, 0, 0, 0, 0, 0, 0, 0, 0, 0, 0], "sum_hessian": [933.86304, 670.23676, 263.62634, 498.51984, 171.71689, 32.503983, 231.12234, 480.7112, 17.80864, 29.247766, 3.2562156, 468.10217, 12.609036, 455.47375, 12.628428, 452.61395, 2.8597815, 9.768646, 2.8597815], "tree_param": {"num_deleted": "0", "num_feature": "9", "num_nodes": "19", "size_leaf_vector": "1"}}, {"base_weights": [-0.025923591, 1.4655796, 0.06554927, 1.8426422, -1.7389348, 1.9257251, -0.022190223, 0.23439234, -0.41104582, 1.9678569, -0.38889784, -0.23080933, 0.22797354, 0.06509919, 1.1317313, -0.10993801, 0.09250827, 0.40543768, -0.54763466], "categories": [], "categories_nodes": [], "categories_segments": [], "categories_sizes": [], "default_left": [0, 0, 0, 0, 0, 0, 0, 0, 0, 0, 0, 0, 0, 0, 0, 0, 0, 0, 0], "id": 62, "left_children": [1, 3, -1, 5, 7, 9, -1, -1, 11, 13, 15, -1, -1, -1, 17, -1, -1, -1, -1], "loss_changes": [2796.4265, 657.83777, 0.0, 151.2677, 16.032822, 47.082886, 0.0, 0.0, 25.810635, 8.549805, 25.491684, 0.0, 0.0, 0.0, 36.199295, 0.0, 0.0, 0.0, 0.0], "parents": [2147483647, 0, 0, 1, 1, 3, 3, 4, 4, 5, 5, 8, 8, 9, 9, 10, 10, 14, 14], "right_children": [2, 4, -1, 6, 8, 10, -1, -1, 12, 14, 16, -1, -1, -1, 18, -1, -1, -1, -1], "split_conditions": [514.0, 16.0, 0.06554927, 17.0, 1.0, 37.0, -0.022190223, 0.23439234, 30.0, 135.0, 1.0, -0.23080933, 0.22797354, 0.06509919, 131.0, -0.10993801, 0.09250827, 0.40543768, -0.54763466], "split_indices": [0, 6, 0, 2, 1, 4, 0, 0, 2, 1, 1, 0, 0, 0, 0, 0, 0, 0, 0], "split_type": [0, 0, 0, 0, 0, 0, 0, 0, 0, 0, 0, 0, 0, 0, 0, 0, 0, 0, 0], "sum_hessian": [950.1183, 540.77954, 409.33875, 484.22742, 56.552143, 473.9582, 10.269216, 48.096325, 8.455818, 465.63235, 8.325829, 3.2562156, 5.199603, 449.35776, 16.274614, 5.069613, 3.2562156, 13.024862, 3.2497518], "tree_param": {"num_deleted": "0", "num_feature": "9", "num_nodes": "19", "size_leaf_vector": "1"}}, {"base_weights": [0.012843121, 1.4879326, 0.46641332, 1.859756, -0.11278798, 1.9323491, -0.5829019, 1.9700092, -0.31858763, 0.043561194, 1.155476, -0.6351823, -0.23193973, -0.5312021, -0.99904037], "categories": [], "categories_nodes": [], "categories_segments": [], "categories_sizes": [], "default_left": [0, 0, 0, 0, 0, 0, 0, 0, 0, 0, 0, 0, 0, 0, 0], "id": 63, "left_children": [1, 3, -1, 5, -1, 7, -1, 9, 11, -1, 13, -1, -1, -1, -1], "loss_changes": [2842.46, 713.5737, 0.0, 136.47253, 0.0, 42.226196, 0.0, 7.802246, 24.480532, 0.0, 34.944424, 0.0, 0.0, 0.0, 0.0], "parents": [2147483647, 0, 0, 1, 1, 3, 3, 5, 5, 7, 7, 8, 8, 10, 10], "right_children": [2, 4, -1, 6, -1, 8, -1, 10, 12, -1, 14, -1, -1, -1, -1], "split_conditions": [514.0, 16.0, 0.46641332, 17.0, -0.11278798, 37.0, -0.5829019, 135.0, 1.0, 0.043561194, 131.0, -0.6351823, -0.23193973, -0.5312021, -0.99904037], "split_indices": [0, 6, 0, 2, 0, 4, 0, 1, 1, 0, 0, 0, 0, 0, 0], "split_type": [0, 0, 0, 0, 0, 0, 0, 0, 0, 0, 0, 0, 0, 0, 0], "sum_hessian": [957.6836, 552.2445, 405.43903, 498.9486, 53.29593, 489.7193, 9.229295, 481.78345, 7.9358582, 465.63882, 16.144625, 4.6796427, 3.2562156, 13.024862, 3.1197617], "tree_param": {"num_deleted": "0", "num_feature": "9", "num_nodes": "15", "size_leaf_vector": "1"}}, {"base_weights": [0.033494476, 0.7963177, -1.944663, -1.5137354, 1.4996549, -1.5567096, -0.46950153, -0.28900242, 0.88132906, 1.68684, 0.21641332, -0.11845606, -0.41149428, 0.19265518, -0.031827033, 1.9706829, -0.0010803759, -0.42231986, -0.51164305], "categories": [], "categories_nodes": [], "categories_segments": [], "categories_sizes": [], "default_left": [0, 0, 0, 0, 0, 0, 0, 0, 0, 0, 0, 0, 0, 0, 0, 0, 0, 0, 0], "id": 64, "left_children": [1, 3, 5, 7, 9, 11, -1, -1, 13, 15, -1, -1, -1, -1, -1, 17, -1, -1, -1], "loss_changes": [1472.1569, 1146.1768, 1.8457031, 187.99142, 350.0338, 42.50943, 0.0, 0.0, 78.338455, 532.74097, 0.0, 0.0, 0.0, 0.0, 0.0, 44.43811, 0.0, 0.0, 0.0], "parents": [2147483647, 0, 0, 1, 1, 2, 2, 3, 3, 4, 4, 5, 5, 8, 8, 9, 9, 15, 15], "right_children": [2, 4, 6, 8, 10, 12, -1, -1, 14, 16, -1, -1, -1, -1, -1, 18, -1, -1, -1], "split_conditions": [16.0, 3.0, 512.0, 10.0, 160.0, 128.0, -0.46950153, -0.28900242, 342.0, 514.0, 0.21641332, -0.11845606, -0.41149428, 0.19265518, -0.031827033, 43.0, -0.0010803759, -0.42231986, -0.51164305], "split_indices": [3, 8, 0, 3, 8, 0, 0, 0, 0, 0, 0, 0, 0, 0, 0, 6, 0, 0, 0], "split_type": [0, 0, 0, 0, 0, 0, 0, 0, 0, 0, 0, 0, 0, 0, 0, 0, 0, 0, 0], "sum_hessian": [973.56824, 703.0524, 270.5158, 163.82628, 539.22614, 32.89395, 237.62186, 137.00954, 26.816738, 511.79822, 27.427904, 29.637735, 3.2562156, 19.537292, 7.2794437, 475.14102, 36.6572, 472.15125, 2.9897716], "tree_param": {"num_deleted": "0", "num_feature": "9", "num_nodes": "19", "size_leaf_vector": "1"}}, {"base_weights": [0.012917298, 1.4840773, 0.09947493, 1.8497915, -1.7347409, 0.07608542, 0.22702765, 0.13028632, -0.26820266, -0.03812684, 0.4487199, 0.031981226, 0.16779965], "categories": [], "categories_nodes": [], "categories_segments": [], "categories_sizes": [], "default_left": [0, 0, 0, 0, 0, 0, 0, 0, 0, 0, 0, 0, 0], "id": 65, "left_children": [1, 3, -1, 5, 7, 9, -1, -1, 11, -1, -1, -1, -1], "loss_changes": [2815.7158, 650.7903, 0.0, 127.74988, 18.116257, 142.60469, 0.0, 0.0, 23.757288, 0.0, 0.0, 0.0, 0.0], "parents": [2147483647, 0, 0, 1, 1, 3, 3, 4, 4, 5, 5, 8, 8], "right_children": [2, 4, -1, 6, 8, 10, -1, -1, 12, -1, -1, -1, -1], "split_conditions": [514.0, 16.0, 0.09947493, 1.0, 1.0, 1.0, 0.22702765, 0.13028632, 359.0, -0.03812684, 0.4487199, 0.031981226, 0.16779965], "split_indices": [0, 6, 0, 8, 1, 3, 0, 0, 0, 0, 0, 0, 0], "split_type": [0, 0, 0, 0, 0, 0, 0, 0, 0, 0, 0, 0, 0], "sum_hessian": [951.1776, 549.1183, 402.0593, 493.4761, 55.642216, 37.605915, 455.87018, 47.966335, 7.675878, 18.06862, 19.537292, 4.4196625, 3.2562156], "tree_param": {"num_deleted": "0", "num_feature": "9", "num_nodes": "13", "size_leaf_vector": "1"}}, {"base_weights": [0.051335055, 1.5000497, 0.24534565, 1.8516735, -1.7304101, 1.9301528, 0.20204644, 0.014581139, -0.19410351, 1.0136666, -0.09994935, 0.0008036656, -0.20897618], "categories": [], "categories_nodes": [], "categories_segments": [], "categories_sizes": [], "default_left": [0, 0, 0, 0, 0, 0, 0, 0, 0, 0, 0, 0, 0], "id": 66, "left_children": [1, 3, -1, 5, 7, 9, -1, -1, -1, 11, -1, -1, -1], "loss_changes": [2848.1729, 642.1439, 0.0, 149.84326, 45.064926, 27.863403, 0.0, 0.0, 0.0, 93.330666, 0.0, 0.0, 0.0], "parents": [2147483647, 0, 0, 1, 1, 3, 3, 4, 4, 5, 5, 9, 9], "right_children": [2, 4, -1, 6, 8, 10, -1, -1, -1, 12, -1, -1, -1], "split_conditions": [514.0, 16.0, 0.24534565, 17.0, 513.0, 1.0, 0.20204644, 0.014581139, -0.19410351, 1.0, -0.09994935, 0.0008036656, -0.20897618], "split_indices": [0, 6, 0, 2, 0, 8, 0, 0, 0, 2, 0, 0, 0], "split_type": [0, 0, 0, 0, 0, 0, 0, 0, 0, 0, 0, 0, 0], "sum_hessian": [958.74286, 561.4932, 397.24966, 506.76093, 54.732285, 496.6217, 10.139226, 51.476067, 3.2562156, 34.239098, 462.3826, 8.189375, 26.049725], "tree_param": {"num_deleted": "0", "num_feature": "9", "num_nodes": "13", "size_leaf_vector": "1"}}, {"base_weights": [0.028798303, 1.4912137, -0.02857738, -1.0328898, 1.8498617, 0.019204045, -0.12482368, 1.928951, 0.22995065, -0.09434336, -0.41294247], "categories": [], "categories_nodes": [], "categories_segments": [], "categories_sizes": [], "default_left": [0, 0, 0, 0, 0, 0, 0, 0, 0, 0, 0], "id": 67, "left_children": [1, 3, -1, 5, 7, -1, -1, 9, -1, -1, -1], "loss_changes": [2818.0034, 502.2727, 0.0, 191.88737, 143.8385, 0.0, 0.0, 120.93115, 0.0, 0.0, 0.0], "parents": [2147483647, 0, 0, 1, 1, 3, 3, 4, 4, 7, 7], "right_children": [2, 4, -1, 6, 8, -1, -1, 10, -1, -1, -1], "split_conditions": [514.0, 291.0, -0.02857738, 64.0, 16.0, 0.019204045, -0.12482368, 66.0, 0.22995065, -0.09434336, -0.41294247], "split_indices": [0, 0, 0, 1, 1, 0, 0, 7, 0, 0, 0], "split_type": [0, 0, 0, 0, 0, 0, 0, 0, 0, 0, 0], "sum_hessian": [950.14417, 551.72455, 398.41956, 68.4071, 483.31747, 52.12602, 16.281078, 473.5682, 9.749255, 465.63882, 7.9293942], "tree_param": {"num_deleted": "0", "num_feature": "9", "num_nodes": "11", "size_leaf_vector": "1"}}, {"base_weights": [-0.03636598, 1.4583666, -0.10086674, 1.8467711, 0.31700197, 1.9263598, -0.30608252, 1.967402, -0.6214799, 0.18278913, 1.1317313, -0.21239589, -0.009054652], "categories": [], "categories_nodes": [], "categories_segments": [], "categories_sizes": [], "default_left": [0, 0, 0, 0, 0, 0, 0, 0, 0, 0, 0, 0, 0], "id": 68, "left_children": [1, 3, -1, 5, -1, 7, -1, 9, -1, -1, 11, -1, -1], "loss_changes": [2724.6155, 705.0985, 0.0, 141.6643, 0.0, 71.61023, 0.0, 8.543213, 0.0, 0.0, 36.199295, 0.0, 0.0], "parents": [2147483647, 0, 0, 1, 1, 3, 3, 5, 5, 7, 7, 10, 10], "right_children": [2, 4, -1, 6, -1, 8, -1, 10, -1, -1, 12, -1, -1], "split_conditions": [514.0, 16.0, -0.10086674, 17.0, 0.31700197, 37.0, -0.30608252, 135.0, -0.6214799, 0.18278913, 131.0, -0.21239589, -0.009054652], "split_indices": [0, 6, 0, 2, 0, 4, 0, 1, 0, 0, 0, 0, 0], "split_type": [0, 0, 0, 0, 0, 0, 0, 0, 0, 0, 0, 0, 0], "sum_hessian": [928.64404, 526.8448, 401.79932, 473.54883, 53.29593, 463.92957, 9.619266, 459.11993, 4.809633, 442.8453, 16.274614, 13.024862, 3.2497518], "tree_param": {"num_deleted": "0", "num_feature": "9", "num_nodes": "13", "size_leaf_vector": "1"}}, {"base_weights": [-0.01807186, -1.7798835, 0.8344066, -0.7248028, -0.57087994, 1.6360937, -0.13179171, -0.3076267, 1.4438779, -0.3055586, -0.056810334, -0.100467525, -0.30578232], "categories": [], "categories_nodes": [], "categories_segments": [], "categories_sizes": [], "default_left": [0, 0, 0, 0, 0, 0, 0, 0, 0, 0, 0, 0, 0], "id": 69, "left_children": [1, 3, 5, 7, -1, 9, -1, -1, 11, -1, -1, -1, -1], "loss_changes": [1404.5763, 66.83728, 1428.1675, 141.68834, 0.0, 594.8729, 0.0, 0.0, 26.806946, 0.0, 0.0, 0.0, 0.0], "parents": [2147483647, 0, 0, 1, 1, 2, 2, 3, 3, 5, 5, 8, 8], "right_children": [2, 4, 6, 8, -1, 10, -1, -1, 12, -1, -1, -1, -1], "split_conditions": [3.0, 512.0, 160.0, 1.0, -0.57087994, 514.0, -0.13179171, -0.3076267, 10.0, -0.3055586, -0.056810334, -0.100467525, -0.30578232], "split_indices": [8, 0, 8, 3, 0, 0, 0, 0, 1, 0, 0, 0, 0], "split_type": [0, 0, 0, 0, 0, 0, 0, 0, 0, 0, 0, 0, 0], "sum_hessian": [933.20667, 303.9491, 629.25757, 51.63838, 252.31073, 490.29816, 138.95938, 33.14747, 18.49091, 448.83133, 41.46683, 16.281078, 2.2098312], "tree_param": {"num_deleted": "0", "num_feature": "9", "num_nodes": "13", "size_leaf_vector": "1"}}, {"base_weights": [0.0017094006, 1.4778966, 0.43675503, 1.8002065, -1.7026703, 1.8944726, 0.057635233, 0.18624434, 0.3835327, 1.9693899, -0.1897297, 0.019541906, 1.155476, 0.30811527, 0.5815637], "categories": [], "categories_nodes": [], "categories_segments": [], "categories_sizes": [], "default_left": [0, 0, 0, 0, 0, 0, 0, 0, 0, 0, 0, 0, 0, 0, 0], "id": 70, "left_children": [1, 3, -1, 5, 7, 9, -1, -1, -1, 11, -1, -1, 13, -1, -1], "loss_changes": [2786.897, 560.33105, 0.0, 173.30078, 38.88333, 137.0592, 0.0, 0.0, 0.0, 7.793579, 0.0, 0.0, 34.944424, 0.0, 0.0], "parents": [2147483647, 0, 0, 1, 1, 3, 3, 4, 4, 5, 5, 9, 9, 12, 12], "right_children": [2, 4, -1, 6, 8, 10, -1, -1, -1, 12, -1, -1, 14, -1, -1], "split_conditions": [514.0, 64.0, 0.43675503, 30.0, 1.0, 146.0, 0.057635233, 0.18624434, 0.3835327, 16.0, -0.1897297, 0.019541906, 192.0, 0.30811527, 0.5815637], "split_indices": [0, 4, 0, 2, 6, 7, 0, 0, 0, 1, 0, 0, 1, 0, 0], "split_type": [0, 0, 0, 0, 0, 0, 0, 0, 0, 0, 0, 0, 0, 0, 0], "sum_hessian": [943.49524, 542.6059, 400.88937, 493.07318, 49.53268, 481.1141, 11.959086, 3.776176, 45.756504, 472.0148, 9.099305, 455.87018, 16.144625, 3.1197617, 13.024862], "tree_param": {"num_deleted": "0", "num_feature": "9", "num_nodes": "15", "size_leaf_vector": "1"}}, {"base_weights": [-0.0060298173, 1.4705758, 0.10140165, 1.8488287, -1.7389348, 1.9235774, -0.29456437, -0.23877609, -0.34269646, 1.9680797, 0.11394207, 0.36718625, 0.27295142, -0.16277218, 0.60632294, -0.01015749, 0.23766741], "categories": [], "categories_nodes": [], "categories_segments": [], "categories_sizes": [], "default_left": [0, 0, 0, 0, 0, 0, 0, 0, 0, 0, 0, 0, 0, 0, 0, 0, 0], "id": 71, "left_children": [1, 3, -1, 5, 7, 9, -1, -1, 11, 13, -1, -1, -1, -1, 15, -1, -1], "loss_changes": [2768.4556, 659.99207, 0.0, 135.7644, 17.059097, 79.608765, 0.0, 0.0, 24.827005, 16.433594, 0.0, 0.0, 0.0, 0.0, 28.56594, 0.0, 0.0], "parents": [2147483647, 0, 0, 1, 1, 3, 3, 4, 4, 5, 5, 8, 8, 9, 9, 14, 14], "right_children": [2, 4, -1, 6, 8, 10, -1, -1, 12, 14, -1, -1, -1, -1, 16, -1, -1], "split_conditions": [514.0, 16.0, 0.10140165, 17.0, 1.0, 37.0, -0.29456437, -0.23877609, 359.0, 135.0, 0.11394207, 0.36718625, 0.27295142, -0.16277218, 192.0, -0.01015749, 0.23766741], "split_indices": [0, 6, 0, 2, 1, 4, 0, 0, 0, 1, 0, 0, 0, 0, 1, 0, 0], "split_type": [0, 0, 0, 0, 0, 0, 0, 0, 0, 0, 0, 0, 0, 0, 0, 0, 0], "sum_hessian": [940.629, 539.99963, 400.6294, 483.44748, 56.552143, 474.21817, 9.229295, 48.486298, 8.065848, 468.88858, 5.3295927, 4.809633, 3.2562156, 459.1264, 9.762183, 3.2497518, 6.512431], "tree_param": {"num_deleted": "0", "num_feature": "9", "num_nodes": "17", "size_leaf_vector": "1"}}, {"base_weights": [-0.012440211, -1.7389579, 0.82624584, -1.438959, -0.13089874, 1.47255, 0.08250979, -0.004541541, 0.10100227, 1.814744, 0.24936238, -0.13767932, 0.24458809, 0.08380216, 0.2775433], "categories": [], "categories_nodes": [], "categories_segments": [], "categories_sizes": [], "default_left": [0, 0, 0, 0, 0, 0, 0, 0, 0, 0, 0, 0, 0, 0, 0], "id": 72, "left_children": [1, 3, 5, 7, -1, 9, -1, 11, -1, 13, -1, -1, -1, -1, -1], "loss_changes": [1359.8301, 20.068909, 1150.5956, 111.00595, 0.0, 607.3822, 0.0, 149.05104, 0.0, 319.1317, 0.0, 0.0, 0.0, 0.0, 0.0], "parents": [2147483647, 0, 0, 1, 1, 2, 2, 3, 3, 5, 5, 7, 7, 9, 9], "right_children": [2, 4, 6, 8, -1, 10, -1, 12, -1, 14, -1, -1, -1, -1, -1], "split_conditions": [3.0, 10.0, 16.0, 512.0, -0.13089874, 146.0, 0.08250979, 1.0, 0.10100227, 514.0, 0.24936238, -0.13767932, 0.24458809, 0.08380216, 0.2775433], "split_indices": [8, 1, 3, 0, 0, 7, 0, 1, 0, 0, 0, 0, 0, 0, 0], "split_type": [0, 0, 0, 0, 0, 0, 0, 0, 0, 0, 0, 0, 0, 0, 0], "sum_hessian": [937.1128, 306.0354, 631.0774, 141.85796, 164.17746, 513.4364, 117.641014, 39.165794, 102.692154, 467.28992, 46.146477, 19.6285, 19.537292, 446.10153, 21.188381], "tree_param": {"num_deleted": "0", "num_feature": "9", "num_nodes": "15", "size_leaf_vector": "1"}}, {"base_weights": [0.002806335, 1.4735743, -0.27663124, 1.8508039, -0.22168031, 1.926169, -0.29709938, 1.9430833, 0.07839227, 1.9695991, 0.0017223086, -0.076933034, 1.290272, -0.5421601, 0.43495122, -0.0042433506, 0.35162047], "categories": [], "categories_nodes": [], "categories_segments": [], "categories_sizes": [], "default_left": [0, 0, 0, 0, 0, 0, 0, 0, 0, 0, 0, 0, 0, 0, 0, 0, 0], "id": 73, "left_children": [1, 3, -1, 5, -1, 7, -1, 9, -1, 11, 13, -1, 15, -1, -1, -1, -1], "loss_changes": [2795.8079, 714.1786, 0.0, 139.84888, 0.0, 29.497314, 0.0, 24.848267, 0.0, 5.8448486, 19.90488, 0.0, 36.842392, 0.0, 0.0, 0.0, 0.0], "parents": [2147483647, 0, 0, 1, 1, 3, 3, 5, 5, 7, 7, 9, 9, 10, 10, 12, 12], "right_children": [2, 4, -1, 6, -1, 8, -1, 10, -1, 12, 14, -1, 16, -1, -1, -1, -1], "split_conditions": [514.0, 16.0, -0.27663124, 17.0, -0.22168031, 25.0, -0.29709938, 37.0, 0.07839227, 135.0, 291.0, -0.076933034, 192.0, -0.5421601, 0.43495122, -0.0042433506, 0.35162047], "split_indices": [0, 6, 0, 2, 0, 5, 0, 4, 0, 1, 0, 0, 1, 0, 0, 0, 0], "split_type": [0, 0, 0, 0, 0, 0, 0, 0, 0, 0, 0, 0, 0, 0, 0, 0, 0], "sum_hessian": [949.48126, 547.032, 402.44925, 493.3461, 53.685898, 483.85684, 9.489275, 481.77698, 2.0798411, 475.27103, 6.505967, 455.87018, 19.400839, 3.2497518, 3.2562156, 3.1197617, 16.281078], "tree_param": {"num_deleted": "0", "num_feature": "9", "num_nodes": "17", "size_leaf_vector": "1"}}, {"base_weights": [-0.030630259, 1.470181, 0.023472037, 1.8552194, -1.7377502, 1.9340593, 0.025253236, -0.058640767, 0.3300758, 1.9506602, 0.06731721, 1.9728215, 0.19148557, 0.23011543, 1.0725023, -0.17600845, -0.36888656, -0.106787495, -0.29954147], "categories": [], "categories_nodes": [], "categories_segments": [], "categories_sizes": [], "default_left": [0, 0, 0, 0, 0, 0, 0, 0, 0, 0, 0, 0, 0, 0, 0, 0, 0, 0, 0], "id": 74, "left_children": [1, 3, -1, 5, 7, 9, -1, -1, -1, 11, -1, 13, 15, -1, 17, -1, -1, -1, -1], "loss_changes": [2755.2595, 657.62195, 0.0, 140.30225, 45.172974, 27.660645, 0.0, 0.0, 0.0, 17.63623, 0.0, 7.172241, 17.223654, 0.0, 27.579208, 0.0, 0.0, 0.0, 0.0], "parents": [2147483647, 0, 0, 1, 1, 3, 3, 4, 4, 5, 5, 9, 9, 11, 11, 12, 12, 14, 14], "right_children": [2, 4, -1, 6, 8, 10, -1, -1, -1, 12, -1, 14, 16, -1, 18, -1, -1, -1, -1], "split_conditions": [514.0, 16.0, 0.023472037, 17.0, 513.0, 25.0, 0.025253236, -0.058640767, 0.3300758, 37.0, 0.06731721, 135.0, 291.0, 0.23011543, 131.0, -0.17600845, -0.36888656, -0.106787495, -0.29954147], "split_indices": [0, 6, 0, 2, 0, 5, 0, 0, 0, 4, 0, 1, 0, 0, 0, 0, 0, 0, 0], "split_type": [0, 0, 0, 0, 0, 0, 0, 0, 0, 0, 0, 0, 0, 0, 0, 0, 0, 0, 0], "sum_hessian": [932.55023, 528.8011, 403.74915, 472.5089, 56.292164, 463.01962, 9.489275, 53.03595, 3.2562156, 461.0698, 1.949851, 455.21378, 5.856017, 442.8453, 12.368448, 2.5998015, 3.2562156, 9.768646, 2.5998015], "tree_param": {"num_deleted": "0", "num_feature": "9", "num_nodes": "19", "size_leaf_vector": "1"}}, {"base_weights": [-0.028371012, -1.6992171, 0.8104021, -0.4351223, -0.2594416, 1.7233322, -0.17422916, 0.21999069, 1.5831565, 0.056752097, -0.14202018, 0.315297, -0.44092816], "categories": [], "categories_nodes": [], "categories_segments": [], "categories_sizes": [], "default_left": [0, 0, 0, 0, 0, 0, 0, 0, 0, 0, 0, 0, 0], "id": 75, "left_children": [1, 3, 5, 7, -1, 9, -1, -1, 11, -1, -1, -1, -1], "loss_changes": [1298.9535, 113.79675, 1579.3269, 184.167, 0.0, 467.95837, 0.0, 0.0, 28.25328, 0.0, 0.0, 0.0, 0.0], "parents": [2147483647, 0, 0, 1, 1, 2, 2, 3, 3, 5, 5, 8, 8], "right_children": [2, 4, 6, 8, -1, 10, -1, -1, 12, -1, -1, -1, -1], "split_conditions": [3.0, 512.0, 514.0, 1.0, -0.2594416, 146.0, -0.17422916, 0.21999069, 10.0, 0.056752097, -0.14202018, 0.315297, -0.44092816], "split_indices": [8, 0, 0, 3, 0, 7, 0, 0, 1, 0, 0, 0, 0], "split_type": [0, 0, 0, 0, 0, 0, 0, 0, 0, 0, 0, 0, 0], "sum_hessian": [924.8743, 308.77167, 616.10266, 58.54078, 250.23088, 464.79425, 151.30844, 33.537437, 25.00334, 433.07666, 31.717577, 22.793509, 2.2098312], "tree_param": {"num_deleted": "0", "num_feature": "9", "num_nodes": "13", "size_leaf_vector": "1"}}, {"base_weights": [-0.008853457, 1.466532, 0.40729883, 1.8426155, -1.7365546, 1.924131, 0.1513381, -0.16984239, -0.21271813, 1.9689626, -0.41583568, -0.029207418, 1.155476, -0.023905251, 0.031162016], "categories": [], "categories_nodes": [], "categories_segments": [], "categories_sizes": [], "default_left": [0, 0, 0, 0, 0, 0, 0, 0, 0, 0, 0, 0, 0, 0, 0], "id": 76, "left_children": [1, 3, -1, 5, 7, 9, -1, -1, -1, 11, -1, -1, 13, -1, -1], "loss_changes": [2746.9475, 651.1372, 0.0, 147.29187, 45.155396, 79.638794, 0.0, 0.0, 0.0, 7.7874756, 0.0, 0.0, 34.944424, 0.0, 0.0], "parents": [2147483647, 0, 0, 1, 1, 3, 3, 4, 4, 5, 5, 9, 9, 12, 12], "right_children": [2, 4, -1, 6, 8, 10, -1, -1, -1, 12, -1, -1, 14, -1, -1], "split_conditions": [514.0, 16.0, 0.40729883, 17.0, 513.0, 37.0, 0.1513381, -0.16984239, -0.21271813, 135.0, -0.41583568, -0.029207418, 131.0, -0.023905251, 0.031162016], "split_indices": [0, 6, 0, 2, 0, 4, 0, 0, 0, 1, 0, 0, 0, 0, 0], "split_type": [0, 0, 0, 0, 0, 0, 0, 0, 0, 0, 0, 0, 0, 0, 0], "sum_hessian": [935.423, 536.8734, 398.54956, 480.8412, 56.032185, 470.83197, 10.009235, 52.77597, 3.2562156, 465.50238, 5.3295927, 449.35776, 16.144625, 13.024862, 3.1197617], "tree_param": {"num_deleted": "0", "num_feature": "9", "num_nodes": "15", "size_leaf_vector": "1"}}, {"base_weights": [-0.007680033, 0.738236, -1.8950363, -1.449919, 1.4666746, -1.2604892, 0.062062014, -0.12357548, -0.44192553, 1.8057035, -0.13522112, -0.59088135, -0.13977301, 1.6377109, 0.045128644, 0.24637355, -0.0594959, 0.049764913, 0.43384296], "categories": [], "categories_nodes": [], "categories_segments": [], "categories_sizes": [], "default_left": [0, 0, 0, 0, 0, 0, 0, 0, 0, 0, 0, 0, 0, 0, 0, 0, 0, 0, 0], "id": 77, "left_children": [1, 3, 5, 7, 9, 11, -1, -1, 13, 15, -1, -1, -1, 17, -1, -1, -1, -1, -1], "loss_changes": [1328.1311, 1079.9086, 13.816223, 89.95499, 592.8983, 80.115585, 0.0, 0.0, 189.8818, 330.21448, 0.0, 0.0, 0.0, 23.34256, 0.0, 0.0, 0.0, 0.0, 0.0], "parents": [2147483647, 0, 0, 1, 1, 2, 2, 3, 3, 4, 4, 5, 5, 8, 8, 9, 9, 13, 13], "right_children": [2, 4, 6, 8, 10, 12, -1, -1, 14, 16, -1, -1, -1, 18, -1, -1, -1, -1, -1], "split_conditions": [16.0, 3.0, 512.0, 1.0, 146.0, 128.0, 0.062062014, -0.12357548, 10.0, 514.0, -0.13522112, -0.59088135, -0.13977301, 342.0, 0.045128644, 0.24637355, -0.0594959, 0.049764913, 0.43384296], "split_indices": [3, 8, 0, 2, 7, 0, 0, 0, 2, 0, 0, 0, 0, 0, 0, 0, 0, 0, 0], "split_type": [0, 0, 0, 0, 0, 0, 0, 0, 0, 0, 0, 0, 0, 0, 0, 0, 0, 0, 0], "sum_hessian": [941.40894, 675.17633, 266.2326, 168.38239, 506.79398, 36.930107, 229.30249, 109.58163, 58.80076, 461.55743, 45.236546, 30.417677, 6.512431, 24.61337, 34.18739, 439.5891, 21.968323, 22.793509, 1.8198609], "tree_param": {"num_deleted": "0", "num_feature": "9", "num_nodes": "19", "size_leaf_vector": "1"}}, {"base_weights": [0.003929171, 1.499162, 0.339468, 1.8324727, -0.6104777, 1.9198378, 0.74008125, 1.9715728, -0.14740196, 0.1721709, 1.2040622, 0.35136825, 0.03122944], "categories": [], "categories_nodes": [], "categories_segments": [], "categories_sizes": [], "default_left": [0, 0, 0, 0, 0, 0, 0, 0, 0, 0, 0, 0, 0], "id": 78, "left_children": [1, 3, -1, 5, -1, 7, -1, 9, -1, -1, 11, -1, -1], "loss_changes": [2803.4294, 621.9015, 0.0, 160.3706, 0.0, 93.68884, 0.0, 6.3234863, 0.0, 0.0, 32.38133, 0.0, 0.0], "parents": [2147483647, 0, 0, 1, 1, 3, 3, 5, 5, 7, 7, 10, 10], "right_children": [2, 4, -1, 6, -1, 8, -1, 10, -1, -1, 12, -1, -1], "split_conditions": [514.0, 37.0, 0.339468, 17.0, -0.6104777, 16.0, 0.74008125, 135.0, -0.14740196, 0.1721709, 131.0, 0.35136825, 0.03122944], "split_indices": [0, 4, 0, 2, 0, 6, 0, 1, 0, 0, 0, 0, 0], "split_type": [0, 0, 0, 0, 0, 0, 0, 0, 0, 0, 0, 0, 0], "sum_hessian": [935.94934, 535.57996, 400.36942, 488.9135, 46.666435, 477.99435, 10.919166, 471.75482, 6.2395234, 455.87018, 15.884644, 13.024862, 2.8597815], "tree_param": {"num_deleted": "0", "num_feature": "9", "num_nodes": "13", "size_leaf_vector": "1"}}, {"base_weights": [0.031373516, 1.4909288, -0.30446538, 1.8577499, -1.7377502, 1.9313077, -0.4397131, -0.27810284, -0.07818367, 1.9689406, -0.31858763, 0.45509186, 1.1317313, 0.16295578, -0.47252402, -0.57216513, 0.38183492], "categories": [], "categories_nodes": [], "categories_segments": [], "categories_sizes": [], "default_left": [0, 0, 0, 0, 0, 0, 0, 0, 0, 0, 0, 0, 0, 0, 0, 0, 0], "id": 79, "left_children": [1, 3, -1, 5, 7, 9, -1, -1, -1, 11, 13, -1, 15, -1, -1, -1, -1], "loss_changes": [2831.4946, 662.3186, 0.0, 138.3291, 45.172974, 42.1875, 0.0, 0.0, 0.0, 8.565918, 24.480532, 0.0, 36.199295, 0.0, 0.0, 0.0, 0.0], "parents": [2147483647, 0, 0, 1, 1, 3, 3, 4, 4, 5, 5, 9, 9, 10, 10, 12, 12], "right_children": [2, 4, -1, 6, 8, 10, -1, -1, -1, 12, 14, -1, 16, -1, -1, -1, -1], "split_conditions": [514.0, 16.0, -0.30446538, 17.0, 513.0, 37.0, -0.4397131, -0.27810284, -0.07818367, 135.0, 1.0, 0.45509186, 192.0, 0.16295578, -0.47252402, -0.57216513, 0.38183492], "split_indices": [0, 6, 0, 2, 0, 4, 0, 0, 0, 1, 1, 0, 1, 0, 0, 0, 0], "split_type": [0, 0, 0, 0, 0, 0, 0, 0, 0, 0, 0, 0, 0, 0, 0, 0, 0], "sum_hessian": [955.3502, 555.50073, 399.84946, 499.2086, 56.292164, 489.8493, 9.359285, 53.03595, 3.2562156, 481.91345, 7.9358582, 465.63882, 16.274614, 4.6796427, 3.2562156, 3.2497518, 13.024862], "tree_param": {"num_deleted": "0", "num_feature": "9", "num_nodes": "17", "size_leaf_vector": "1"}}, {"base_weights": [-0.0046069566, 1.4671186, -0.30495307, 1.7255603, 0.32795343, 1.8631078, 0.08481923, 1.9288512, -0.19677268, 1.1774082, 0.49651402, -0.018263754, 0.10739944], "categories": [], "categories_nodes": [], "categories_segments": [], "categories_sizes": [], "default_left": [0, 0, 0, 0, 0, 0, 0, 0, 0, 0, 0, 0, 0], "id": 80, "left_children": [1, 3, -1, 5, -1, 7, -1, 9, -1, 11, -1, -1, -1], "loss_changes": [2778.462, 484.71436, 0.0, 256.2577, 0.0, 120.7301, 0.0, 21.736694, 0.0, 97.347336, 0.0, 0.0, 0.0], "parents": [2147483647, 0, 0, 1, 1, 3, 3, 5, 5, 7, 7, 9, 9], "right_children": [2, 4, -1, 6, -1, 8, -1, 10, -1, 12, -1, -1, -1], "split_conditions": [514.0, 146.0, -0.30495307, 16.0, 0.32795343, 17.0, 0.08481923, 1.0, -0.19677268, 1.0, 0.49651402, -0.018263754, 0.10739944], "split_indices": [0, 7, 0, 6, 0, 2, 0, 8, 0, 2, 0, 0, 0], "split_type": [0, 0, 0, 0, 0, 0, 0, 0, 0, 0, 0, 0, 0], "sum_hessian": [946.48505, 544.2958, 402.18927, 506.46863, 37.82711, 488.40002, 18.06862, 480.21063, 8.189375, 40.62154, 439.5891, 8.059384, 32.562157], "tree_param": {"num_deleted": "0", "num_feature": "9", "num_nodes": "13", "size_leaf_vector": "1"}}, {"base_weights": [-0.00932752, 1.4806116, 0.4107812, 1.8059369, -1.7026703, 1.8926983, -0.4079032, 0.15435998, 0.37132698, 0.5779585, -0.40206033, 0.7021826, -0.4778985, 0.5485008, 0.16104834], "categories": [], "categories_nodes": [], "categories_segments": [], "categories_sizes": [], "default_left": [0, 0, 0, 0, 0, 0, 0, 0, 0, 0, 0, 0, 0, 0, 0], "id": 81, "left_children": [1, 3, -1, 5, 7, 9, -1, -1, 11, 13, -1, -1, -1, -1, -1], "loss_changes": [2793.49, 561.72, 0.0, 158.10693, 27.25003, 63.581665, 0.0, 0.0, 14.709159, 120.9651, 0.0, 0.0, 0.0, 0.0, 0.0], "parents": [2147483647, 0, 0, 1, 1, 3, 3, 4, 4, 5, 5, 8, 8, 9, 9], "right_children": [2, 4, -1, 6, 8, 10, -1, -1, 12, 14, -1, -1, -1, -1, -1], "split_conditions": [514.0, 64.0, 0.4107812, 43.0, 1.0, 1.0, -0.4079032, 0.15435998, 3.0, 1.0, -0.40206033, 0.7021826, -0.4778985, 0.5485008, 0.16104834], "split_indices": [0, 4, 0, 6, 1, 8, 0, 0, 1, 3, 0, 0, 0, 0, 0], "split_type": [0, 0, 0, 0, 0, 0, 0, 0, 0, 0, 0, 0, 0, 0, 0], "sum_hessian": [942.1889, 538.43976, 403.74915, 488.90704, 49.53268, 477.98788, 10.919166, 44.196625, 5.3360567, 35.142567, 442.8453, 3.2562156, 2.0798411, 12.349057, 22.793509], "tree_param": {"num_deleted": "0", "num_feature": "9", "num_nodes": "15", "size_leaf_vector": "1"}}, {"base_weights": [0.018428363, 1.4931569, 0.102813706, 1.8528302, -1.7297798, 1.9324949, 0.048535965, -0.13790502, -0.38889784, 1.9674335, -0.2418606, -0.38602045, 0.028715704, 0.3445076, 1.2488697, 0.5479736, 0.4922399, -0.0911163, 0.25053018], "categories": [], "categories_nodes": [], "categories_segments": [], "categories_sizes": [], "default_left": [0, 0, 0, 0, 0, 0, 0, 0, 0, 0, 0, 0, 0, 0, 0, 0, 0, 0, 0], "id": 82, "left_children": [1, 3, -1, 5, 7, 9, -1, -1, 11, 13, 15, -1, -1, -1, 17, -1, -1, -1, -1], "loss_changes": [2822.5554, 639.2467, 0.0, 148.01562, 16.23117, 37.25049, 0.0, 0.0, 25.491684, 7.1601562, 23.379639, 0.0, 0.0, 0.0, 39.563866, 0.0, 0.0, 0.0, 0.0], "parents": [2147483647, 0, 0, 1, 1, 3, 3, 4, 4, 5, 5, 8, 8, 9, 9, 10, 10, 14, 14], "right_children": [2, 4, -1, 6, 8, 10, -1, -1, 12, 14, 16, -1, -1, -1, 18, -1, -1, -1, -1], "split_conditions": [514.0, 16.0, 0.102813706, 17.0, 1.0, 37.0, 0.048535965, -0.13790502, 359.0, 16.0, 291.0, -0.38602045, 0.028715704, 0.3445076, 192.0, 0.5479736, 0.4922399, -0.0911163, 0.25053018], "split_indices": [0, 6, 0, 2, 2, 4, 0, 0, 0, 1, 0, 0, 0, 0, 1, 0, 0, 0, 0], "split_type": [0, 0, 0, 0, 0, 0, 0, 0, 0, 0, 0, 0, 0, 0, 0, 0, 0, 0, 0], "sum_hessian": [948.5778, 547.6884, 400.88937, 493.08612, 54.602295, 483.07687, 10.009235, 46.276466, 8.325829, 475.531, 7.545888, 5.069613, 3.2562156, 455.87018, 19.66082, 4.2896724, 3.2562156, 3.379742, 16.281078], "tree_param": {"num_deleted": "0", "num_feature": "9", "num_nodes": "19", "size_leaf_vector": "1"}}, {"base_weights": [-0.013980635, -1.6279417, 0.8122734, 0.088970676, -1.944477, 1.7261214, -0.031469185, -0.20016962, 0.2584159, -1.0659266, -0.7668038, -0.1387188, 0.5975552, 0.27166277, 0.2589027], "categories": [], "categories_nodes": [], "categories_segments": [], "categories_sizes": [], "default_left": [0, 0, 0, 0, 0, 0, 0, 0, 0, 0, 0, 0, 0, 0, 0], "id": 83, "left_children": [1, 3, 5, 7, 9, 11, -1, -1, -1, 13, -1, -1, -1, -1, -1], "loss_changes": [1262.051, 174.32239, 1604.7242, 191.25844, 9.215759, 470.25476, 0.0, 0.0, 0.0, 35.316715, 0.0, 0.0, 0.0, 0.0, 0.0], "parents": [2147483647, 0, 0, 1, 1, 2, 2, 3, 3, 4, 4, 5, 5, 9, 9], "right_children": [2, 4, 6, 8, 10, 12, -1, -1, -1, 14, -1, -1, -1, -1, -1], "split_conditions": [3.0, 342.0, 514.0, 291.0, 512.0, 43.0, -0.031469185, -0.20016962, 0.2584159, 376.0, -0.7668038, -0.1387188, 0.5975552, 0.27166277, 0.2589027], "split_indices": [8, 0, 0, 0, 0, 6, 0, 0, 0, 0, 0, 0, 0, 0, 0], "split_type": [0, 0, 0, 0, 0, 0, 0, 0, 0, 0, 0, 0, 0, 0, 0], "sum_hessian": [944.39874, 319.4438, 624.95496, 49.837906, 269.60587, 471.43668, 153.51828, 23.788183, 26.049725, 15.085312, 254.52055, 439.5891, 31.847567, 11.829097, 3.2562156], "tree_param": {"num_deleted": "0", "num_feature": "9", "num_nodes": "15", "size_leaf_vector": "1"}}, {"base_weights": [0.0014339449, 1.471256, 0.50946707, 1.8611585, -1.7469369, 1.9347874, 0.081734754, 0.18255782, -0.4325931, 0.88132906, 0.10950924, -0.103993334, 0.4504067, -0.41801265, 1.4256066, -0.10543834, -0.0911882], "categories": [], "categories_nodes": [], "categories_segments": [], "categories_sizes": [], "default_left": [0, 0, 0, 0, 0, 0, 0, 0, 0, 0, 0, 0, 0, 0, 0, 0, 0], "id": 84, "left_children": [1, 3, -1, 5, 7, 9, -1, -1, 11, 13, -1, -1, -1, -1, 15, -1, -1], "loss_changes": [2774.863, 686.6626, 0.0, 134.64026, 15.826599, 28.790283, 0.0, 0.0, 26.121132, 40.361446, 0.0, 0.0, 0.0, 0.0, 35.268265, 0.0, 0.0], "parents": [2147483647, 0, 0, 1, 1, 3, 3, 4, 4, 5, 5, 8, 8, 9, 9, 14, 14], "right_children": [2, 4, -1, 6, 8, 10, -1, -1, 12, 14, -1, -1, -1, -1, 16, -1, -1], "split_conditions": [514.0, 16.0, 0.50946707, 17.0, 1.0, 1.0, 0.081734754, 0.18255782, 7.0, 291.0, 0.10950924, -0.103993334, 0.4504067, -0.41801265, 10.0, -0.10543834, -0.0911882], "split_indices": [0, 6, 0, 2, 1, 8, 0, 0, 1, 0, 0, 0, 0, 0, 1, 0, 0], "split_type": [0, 0, 0, 0, 0, 0, 0, 0, 0, 0, 0, 0, 0, 0, 0, 0, 0], "sum_hessian": [943.62524, 543.6458, 399.97946, 485.2738, 58.372005, 476.1745, 9.099305, 49.786198, 8.585809, 26.816738, 449.35776, 3.2562156, 5.3295927, 4.4196625, 22.397076, 19.537292, 2.8597815], "tree_param": {"num_deleted": "0", "num_feature": "9", "num_nodes": "17", "size_leaf_vector": "1"}}, {"base_weights": [0.01759978, 1.4775037, -0.5637051, 1.8477596, -0.14309531, 0.09479021, 1.9155874, 0.6350309, -0.1376182, 1.9814254, -0.1683432, 0.3385102, -0.23069021], "categories": [], "categories_nodes": [], "categories_segments": [], "categories_sizes": [], "default_left": [0, 0, 0, 0, 0, 0, 0, 0, 0, 0, 0, 0, 0], "id": 85, "left_children": [1, 3, -1, 5, -1, 7, 9, -1, -1, 11, -1, -1, -1], "loss_changes": [2794.1418, 705.7267, 0.0, 59.045044, 0.0, 67.03369, 120.06433, 0.0, 0.0, 24.370728, 0.0, 0.0, 0.0], "parents": [2147483647, 0, 0, 1, 1, 3, 3, 5, 5, 6, 6, 9, 9], "right_children": [2, 4, -1, 6, -1, 8, 10, -1, -1, 12, -1, -1, -1], "split_conditions": [514.0, 16.0, -0.5637051, 291.0, -0.14309531, 131.0, 16.0, 0.6350309, 